<?xml version="1.0"?>
<MethodSetup Method="BDT::BDT">
  <GeneralInfo>
    <Info name="TMVA Release" value="4.2.1 [262657]"/>
    <Info name="ROOT Release" value="6.32/12 [401420]"/>
    <Info name="Creator" value="srkg5254"/>
    <Info name="Date" value="Fri Jun 27 17:57:48 2025"/>
    <Info name="Host" value="Linux c9157808971f 4.18.0-553.27.1.el8_10.x86_64 #1 SMP Tue Nov 5 04:50:16 EST 2024 x86_64 x86_64 x86_64 GNU/Linux"/>
    <Info name="Dir" value="/home/srkg5254/proj_niser/proj_files/BDTmodel/tuningHPs"/>
    <Info name="Training events" value="784481"/>
    <Info name="TrainingTime" value="9.14736509e+01"/>
    <Info name="AnalysisType" value="Classification"/>
  </GeneralInfo>
  <Options>
    <Option name="V" modified="Yes">False</Option>
    <Option name="VerbosityLevel" modified="No">Default</Option>
    <Option name="VarTransform" modified="No">None</Option>
    <Option name="H" modified="Yes">False</Option>
    <Option name="CreateMVAPdfs" modified="No">False</Option>
    <Option name="IgnoreNegWeightsInTraining" modified="No">False</Option>
    <Option name="NTrees" modified="Yes">228</Option>
    <Option name="MaxDepth" modified="Yes">5</Option>
    <Option name="MinNodeSize" modified="Yes">1.35</Option>
    <Option name="nCuts" modified="Yes">44</Option>
    <Option name="BoostType" modified="Yes">AdaBoost</Option>
    <Option name="AdaBoostR2Loss" modified="No">quadratic</Option>
    <Option name="UseBaggedBoost" modified="Yes">True</Option>
    <Option name="Shrinkage" modified="Yes">6.000000e-02</Option>
    <Option name="AdaBoostBeta" modified="No">5.000000e-01</Option>
    <Option name="UseRandomisedTrees" modified="No">False</Option>
    <Option name="UseNvars" modified="No">3</Option>
    <Option name="UsePoissonNvars" modified="No">True</Option>
    <Option name="BaggedSampleFraction" modified="Yes">5.800000e-01</Option>
    <Option name="UseYesNoLeaf" modified="No">True</Option>
    <Option name="NegWeightTreatment" modified="No">inverseboostnegweights</Option>
    <Option name="Css" modified="No">1.000000e+00</Option>
    <Option name="Cts_sb" modified="No">1.000000e+00</Option>
    <Option name="Ctb_ss" modified="No">1.000000e+00</Option>
    <Option name="Cbb" modified="No">1.000000e+00</Option>
    <Option name="NodePurityLimit" modified="No">5.000000e-01</Option>
    <Option name="SeparationType" modified="No">giniindex</Option>
    <Option name="RegressionLossFunctionBDTG" modified="No">huber</Option>
    <Option name="HuberQuantile" modified="No">7.000000e-01</Option>
    <Option name="DoBoostMonitor" modified="No">False</Option>
    <Option name="UseFisherCuts" modified="No">False</Option>
    <Option name="MinLinCorrForFisher" modified="No">8.000000e-01</Option>
    <Option name="UseExclusiveVars" modified="No">False</Option>
    <Option name="DoPreselection" modified="No">False</Option>
    <Option name="SigToBkgFraction" modified="No">1.000000e+00</Option>
    <Option name="PruneMethod" modified="No">nopruning</Option>
    <Option name="PruneStrength" modified="No">0.000000e+00</Option>
    <Option name="PruningValFraction" modified="No">5.000000e-01</Option>
    <Option name="SkipNormalization" modified="No">False</Option>
    <Option name="nEventsMin" modified="No">0</Option>
    <Option name="UseBaggedGrad" modified="No">False</Option>
    <Option name="GradBaggingFraction" modified="No">5.800000e-01</Option>
    <Option name="UseNTrainEvents" modified="No">0</Option>
    <Option name="NNodesMax" modified="No">0</Option>
  </Options>
  <Variables NVar="6">
    <Variable VarIndex="0" Expression="ADC_mean" Label="ADC_mean" Title="ADC_mean" Unit="" Internal="ADC_mean" Type="F" Min="2.10857147e+02" Max="3.71164893e+03"/>
    <Variable VarIndex="1" Expression="nhits_min" Label="nhits_min" Title="nhits_min" Unit="" Internal="nhits_min" Type="F" Min="0.00000000e+00" Max="8.68000000e+02"/>
    <Variable VarIndex="2" Expression="entry_dist" Label="entry_dist" Title="entry_dist" Unit="" Internal="entry_dist" Type="F" Min="5.17032240e-05" Max="7.61031067e+02"/>
    <Variable VarIndex="3" Expression="exit_dist" Label="exit_dist" Title="exit_dist" Unit="" Internal="exit_dist" Type="F" Min="1.49669708e-04" Max="7.60816833e+02"/>
    <Variable VarIndex="4" Expression="docasqrx_max" Label="docasqrx_max" Title="docasqrx_max" Unit="" Internal="docasqrx_max" Type="F" Min="0.00000000e+00" Max="1.37161462e+06"/>
    <Variable VarIndex="5" Expression="docasqry_max" Label="docasqry_max" Title="docasqry_max" Unit="" Internal="docasqry_max" Type="F" Min="0.00000000e+00" Max="3.85972625e+05"/>
  </Variables>
  <Spectators NSpec="0"/>
  <Classes NClass="2">
    <Class Name="Signal" Index="0"/>
    <Class Name="Background" Index="1"/>
  </Classes>
  <Transformations NTransformations="0"/>
  <MVAPdfs/>
  <Weights NTrees="228" AnalysisType="0">
    <BinaryTree type="DecisionTree" boostWeight="1.7136525666045259e+00" itree="0">
      <Node pos="s" depth="0" NCoef="0" IVar="0" Cut="1.3764271240234375e+03" cType="0" res="-9.9000000000000000e+01" rms="0.0000000000000000e+00" purity="4.9893265962600708e-01" nType="0">
        <Node pos="l" depth="1" NCoef="0" IVar="5" Cut="7.9475662231445312e+01" cType="1" res="-9.9000000000000000e+01" rms="0.0000000000000000e+00" purity="9.6871256828308105e-01" nType="0">
          <Node pos="l" depth="2" NCoef="0" IVar="-1" Cut="2.4642932128906250e+03" cType="0" res="-9.9000000000000000e+01" rms="0.0000000000000000e+00" purity="9.9760538339614868e-01" nType="1"/>
          <Node pos="r" depth="2" NCoef="0" IVar="-1" Cut="0.0000000000000000e+00" cType="1" res="-9.9000000000000000e+01" rms="0.0000000000000000e+00" purity="4.6611121296882629e-01" nType="-1"/>
        </Node>
        <Node pos="r" depth="1" NCoef="0" IVar="-1" Cut="1.0655676269531250e+03" cType="0" res="-9.9000000000000000e+01" rms="0.0000000000000000e+00" purity="3.5252932459115982e-02" nType="-1"/>
      </Node>
    </BinaryTree>
    <BinaryTree type="DecisionTree" boostWeight="1.6762910434359248e+00" itree="1">
      <Node pos="s" depth="0" NCoef="0" IVar="0" Cut="1.0666062011718750e+03" cType="0" res="-9.9000000000000000e+01" rms="0.0000000000000000e+00" purity="5.5172336101531982e-01" nType="0">
        <Node pos="l" depth="1" NCoef="0" IVar="0" Cut="1.8307404785156250e+03" cType="0" res="-9.9000000000000000e+01" rms="0.0000000000000000e+00" purity="9.3144315481185913e-01" nType="0">
          <Node pos="l" depth="2" NCoef="0" IVar="-1" Cut="2.4995229492187500e+03" cType="0" res="-9.9000000000000000e+01" rms="0.0000000000000000e+00" purity="9.9274474382400513e-01" nType="1"/>
          <Node pos="r" depth="2" NCoef="0" IVar="5" Cut="1.1841755676269531e+02" cType="1" res="-9.9000000000000000e+01" rms="0.0000000000000000e+00" purity="7.0387715101242065e-01" nType="0">
            <Node pos="l" depth="3" NCoef="0" IVar="-1" Cut="0.0000000000000000e+00" cType="1" res="-9.9000000000000000e+01" rms="0.0000000000000000e+00" purity="8.8013255596160889e-01" nType="1"/>
            <Node pos="r" depth="3" NCoef="0" IVar="-1" Cut="1.3891563720703125e+03" cType="0" res="-9.9000000000000000e+01" rms="0.0000000000000000e+00" purity="2.6516956090927124e-01" nType="-1"/>
          </Node>
        </Node>
        <Node pos="r" depth="1" NCoef="0" IVar="0" Cut="7.2430590820312500e+02" cType="0" res="-9.9000000000000000e+01" rms="0.0000000000000000e+00" purity="5.8080438524484634e-02" nType="0">
          <Node pos="l" depth="2" NCoef="0" IVar="5" Cut="1.8777363586425781e+02" cType="1" res="-9.9000000000000000e+01" rms="0.0000000000000000e+00" purity="3.0297598242759705e-01" nType="0">
            <Node pos="l" depth="3" NCoef="0" IVar="5" Cut="3.7844406127929688e+01" cType="1" res="-9.9000000000000000e+01" rms="0.0000000000000000e+00" purity="3.9435040950775146e-01" nType="0">
              <Node pos="l" depth="4" NCoef="0" IVar="-1" Cut="0.0000000000000000e+00" cType="1" res="-9.9000000000000000e+01" rms="0.0000000000000000e+00" purity="7.5682586431503296e-01" nType="1"/>
              <Node pos="r" depth="4" NCoef="0" IVar="-1" Cut="0.0000000000000000e+00" cType="1" res="-9.9000000000000000e+01" rms="0.0000000000000000e+00" purity="1.9544860348105431e-02" nType="-1"/>
            </Node>
            <Node pos="r" depth="3" NCoef="0" IVar="-1" Cut="0.0000000000000000e+00" cType="1" res="-9.9000000000000000e+01" rms="0.0000000000000000e+00" purity="6.8287141621112823e-02" nType="-1"/>
          </Node>
          <Node pos="r" depth="2" NCoef="0" IVar="-1" Cut="6.5584295654296875e+02" cType="0" res="-9.9000000000000000e+01" rms="0.0000000000000000e+00" purity="7.2516342625021935e-03" nType="-1"/>
        </Node>
      </Node>
    </BinaryTree>
    <BinaryTree type="DecisionTree" boostWeight="1.1844841766111589e+00" itree="2">
      <Node pos="s" depth="0" NCoef="0" IVar="0" Cut="1.1432977294921875e+03" cType="0" res="-9.9000000000000000e+01" rms="0.0000000000000000e+00" purity="5.2850627899169922e-01" nType="0">
        <Node pos="l" depth="1" NCoef="0" IVar="0" Cut="2.2259746093750000e+03" cType="0" res="-9.9000000000000000e+01" rms="0.0000000000000000e+00" purity="8.8753086328506470e-01" nType="0">
          <Node pos="l" depth="2" NCoef="0" IVar="-1" Cut="2.9173613281250000e+03" cType="0" res="-9.9000000000000000e+01" rms="0.0000000000000000e+00" purity="9.9390393495559692e-01" nType="1"/>
          <Node pos="r" depth="2" NCoef="0" IVar="5" Cut="7.9223358154296875e+01" cType="1" res="-9.9000000000000000e+01" rms="0.0000000000000000e+00" purity="6.6583436727523804e-01" nType="0">
            <Node pos="l" depth="3" NCoef="0" IVar="-1" Cut="0.0000000000000000e+00" cType="1" res="-9.9000000000000000e+01" rms="0.0000000000000000e+00" purity="7.6522600650787354e-01" nType="1"/>
            <Node pos="r" depth="3" NCoef="0" IVar="2" Cut="1.6876974105834961e+01" cType="0" res="-9.9000000000000000e+01" rms="0.0000000000000000e+00" purity="5.3926557302474976e-01" nType="0">
              <Node pos="l" depth="4" NCoef="0" IVar="-1" Cut="0.0000000000000000e+00" cType="1" res="-9.9000000000000000e+01" rms="0.0000000000000000e+00" purity="7.5808250904083252e-01" nType="1"/>
              <Node pos="r" depth="4" NCoef="0" IVar="-1" Cut="0.0000000000000000e+00" cType="1" res="-9.9000000000000000e+01" rms="0.0000000000000000e+00" purity="2.4326011538505554e-01" nType="-1"/>
            </Node>
          </Node>
        </Node>
        <Node pos="r" depth="1" NCoef="0" IVar="-1" Cut="6.4598474121093750e+02" cType="0" res="-9.9000000000000000e+01" rms="0.0000000000000000e+00" purity="9.0724296867847443e-02" nType="-1"/>
      </Node>
    </BinaryTree>
    <BinaryTree type="DecisionTree" boostWeight="9.8781213235580589e-01" itree="3">
      <Node pos="s" depth="0" NCoef="0" IVar="0" Cut="1.5350286865234375e+03" cType="0" res="-9.9000000000000000e+01" rms="0.0000000000000000e+00" purity="5.2903836965560913e-01" nType="0">
        <Node pos="l" depth="1" NCoef="0" IVar="-1" Cut="2.4050166015625000e+03" cType="0" res="-9.9000000000000000e+01" rms="0.0000000000000000e+00" purity="8.9825582504272461e-01" nType="1"/>
        <Node pos="r" depth="1" NCoef="0" IVar="0" Cut="6.8404339599609375e+02" cType="0" res="-9.9000000000000000e+01" rms="0.0000000000000000e+00" purity="2.4404177069664001e-01" nType="0">
          <Node pos="l" depth="2" NCoef="0" IVar="0" Cut="1.3648258056640625e+03" cType="1" res="-9.9000000000000000e+01" rms="0.0000000000000000e+00" purity="4.4716599583625793e-01" nType="0">
            <Node pos="l" depth="3" NCoef="0" IVar="3" Cut="1.6877292633056641e+01" cType="1" res="-9.9000000000000000e+01" rms="0.0000000000000000e+00" purity="4.9916011095046997e-01" nType="0">
              <Node pos="l" depth="4" NCoef="0" IVar="5" Cut="7.0216117858886719e+01" cType="1" res="-9.9000000000000000e+01" rms="0.0000000000000000e+00" purity="5.7739329338073730e-01" nType="0">
                <Node pos="l" depth="5" NCoef="0" IVar="-1" Cut="0.0000000000000000e+00" cType="1" res="-9.9000000000000000e+01" rms="0.0000000000000000e+00" purity="7.5792831182479858e-01" nType="1"/>
                <Node pos="r" depth="5" NCoef="0" IVar="-1" Cut="0.0000000000000000e+00" cType="1" res="-9.9000000000000000e+01" rms="0.0000000000000000e+00" purity="1.4446288347244263e-01" nType="-1"/>
              </Node>
              <Node pos="r" depth="4" NCoef="0" IVar="2" Cut="5.0630325317382812e+01" cType="0" res="-9.9000000000000000e+01" rms="0.0000000000000000e+00" purity="3.6830356717109680e-01" nType="0">
                <Node pos="l" depth="5" NCoef="0" IVar="-1" Cut="0.0000000000000000e+00" cType="1" res="-9.9000000000000000e+01" rms="0.0000000000000000e+00" purity="6.0032939910888672e-01" nType="1"/>
                <Node pos="r" depth="5" NCoef="0" IVar="-1" Cut="0.0000000000000000e+00" cType="1" res="-9.9000000000000000e+01" rms="0.0000000000000000e+00" purity="2.3708780109882355e-01" nType="-1"/>
              </Node>
            </Node>
            <Node pos="r" depth="3" NCoef="0" IVar="-1" Cut="0.0000000000000000e+00" cType="1" res="-9.9000000000000000e+01" rms="0.0000000000000000e+00" purity="2.1814103424549103e-01" nType="-1"/>
          </Node>
          <Node pos="r" depth="2" NCoef="0" IVar="-1" Cut="5.2753753662109375e+02" cType="0" res="-9.9000000000000000e+01" rms="0.0000000000000000e+00" purity="2.9278635978698730e-02" nType="-1"/>
        </Node>
      </Node>
    </BinaryTree>
    <BinaryTree type="DecisionTree" boostWeight="7.3023670462702062e-01" itree="4">
      <Node pos="s" depth="0" NCoef="0" IVar="0" Cut="2.3876433105468750e+03" cType="0" res="-9.9000000000000000e+01" rms="0.0000000000000000e+00" purity="4.9373787641525269e-01" nType="0">
        <Node pos="l" depth="1" NCoef="0" IVar="-1" Cut="2.9752504882812500e+03" cType="0" res="-9.9000000000000000e+01" rms="0.0000000000000000e+00" purity="9.8696488142013550e-01" nType="1"/>
        <Node pos="r" depth="1" NCoef="0" IVar="0" Cut="5.4944195556640625e+02" cType="0" res="-9.9000000000000000e+01" rms="0.0000000000000000e+00" purity="3.1579914689064026e-01" nType="0">
          <Node pos="l" depth="2" NCoef="0" IVar="2" Cut="1.0141975402832031e+02" cType="0" res="-9.9000000000000000e+01" rms="0.0000000000000000e+00" purity="4.1963174939155579e-01" nType="0">
            <Node pos="l" depth="3" NCoef="0" IVar="-1" Cut="0.0000000000000000e+00" cType="1" res="-9.9000000000000000e+01" rms="0.0000000000000000e+00" purity="5.9142625331878662e-01" nType="1"/>
            <Node pos="r" depth="3" NCoef="0" IVar="1" Cut="6.9111114501953125e+01" cType="0" res="-9.9000000000000000e+01" rms="0.0000000000000000e+00" purity="3.8503661751747131e-01" nType="0">
              <Node pos="l" depth="4" NCoef="0" IVar="3" Cut="5.0366703033447266e+01" cType="1" res="-9.9000000000000000e+01" rms="0.0000000000000000e+00" purity="5.7306855916976929e-01" nType="0">
                <Node pos="l" depth="5" NCoef="0" IVar="-1" Cut="0.0000000000000000e+00" cType="1" res="-9.9000000000000000e+01" rms="0.0000000000000000e+00" purity="7.2502064704895020e-01" nType="1"/>
                <Node pos="r" depth="5" NCoef="0" IVar="-1" Cut="0.0000000000000000e+00" cType="1" res="-9.9000000000000000e+01" rms="0.0000000000000000e+00" purity="4.8813361674547195e-02" nType="-1"/>
              </Node>
              <Node pos="r" depth="4" NCoef="0" IVar="-1" Cut="2.4533332824707031e+01" cType="0" res="-9.9000000000000000e+01" rms="0.0000000000000000e+00" purity="3.3997875452041626e-01" nType="-1"/>
            </Node>
          </Node>
          <Node pos="r" depth="2" NCoef="0" IVar="-1" Cut="1.6911805725097656e+02" cType="0" res="-9.9000000000000000e+01" rms="0.0000000000000000e+00" purity="2.1772472187876701e-02" nType="-1"/>
        </Node>
      </Node>
    </BinaryTree>
    <BinaryTree type="DecisionTree" boostWeight="6.7364237794311699e-01" itree="5">
      <Node pos="s" depth="0" NCoef="0" IVar="0" Cut="2.3119724121093750e+03" cType="0" res="-9.9000000000000000e+01" rms="0.0000000000000000e+00" purity="5.4152917861938477e-01" nType="0">
        <Node pos="l" depth="1" NCoef="0" IVar="-1" Cut="2.9333215332031250e+03" cType="0" res="-9.9000000000000000e+01" rms="0.0000000000000000e+00" purity="9.7747683525085449e-01" nType="1"/>
        <Node pos="r" depth="1" NCoef="0" IVar="0" Cut="5.4118786621093750e+02" cType="0" res="-9.9000000000000000e+01" rms="0.0000000000000000e+00" purity="4.0392947196960449e-01" nType="0">
          <Node pos="l" depth="2" NCoef="0" IVar="2" Cut="1.6819244384765625e+01" cType="1" res="-9.9000000000000000e+01" rms="0.0000000000000000e+00" purity="5.1482713222503662e-01" nType="0">
            <Node pos="l" depth="3" NCoef="0" IVar="0" Cut="7.7728753662109375e+02" cType="0" res="-9.9000000000000000e+01" rms="0.0000000000000000e+00" purity="5.9356635808944702e-01" nType="0">
              <Node pos="l" depth="4" NCoef="0" IVar="-1" Cut="5.2328300476074219e+00" cType="1" res="-9.9000000000000000e+01" rms="0.0000000000000000e+00" purity="6.3710653781890869e-01" nType="1"/>
              <Node pos="r" depth="4" NCoef="0" IVar="5" Cut="5.1954662322998047e+01" cType="1" res="-9.9000000000000000e+01" rms="0.0000000000000000e+00" purity="4.0620815753936768e-01" nType="0">
                <Node pos="l" depth="5" NCoef="0" IVar="-1" Cut="0.0000000000000000e+00" cType="1" res="-9.9000000000000000e+01" rms="0.0000000000000000e+00" purity="5.8586168289184570e-01" nType="1"/>
                <Node pos="r" depth="5" NCoef="0" IVar="-1" Cut="0.0000000000000000e+00" cType="1" res="-9.9000000000000000e+01" rms="0.0000000000000000e+00" purity="3.4094087779521942e-02" nType="-1"/>
              </Node>
            </Node>
            <Node pos="r" depth="3" NCoef="0" IVar="5" Cut="3.7124847412109375e+02" cType="0" res="-9.9000000000000000e+01" rms="0.0000000000000000e+00" purity="3.5919398069381714e-01" nType="0">
              <Node pos="l" depth="4" NCoef="0" IVar="-1" Cut="0.0000000000000000e+00" cType="1" res="-9.9000000000000000e+01" rms="0.0000000000000000e+00" purity="5.8154702186584473e-01" nType="1"/>
              <Node pos="r" depth="4" NCoef="0" IVar="-1" Cut="4.9496810913085938e+01" cType="1" res="-9.9000000000000000e+01" rms="0.0000000000000000e+00" purity="2.6754254102706909e-01" nType="-1"/>
            </Node>
          </Node>
          <Node pos="r" depth="2" NCoef="0" IVar="-1" Cut="4.1796017456054688e+02" cType="0" res="-9.9000000000000000e+01" rms="0.0000000000000000e+00" purity="3.2944742124527693e-03" nType="-1"/>
        </Node>
      </Node>
    </BinaryTree>
    <BinaryTree type="DecisionTree" boostWeight="5.0444053296151770e-01" itree="6">
      <Node pos="s" depth="0" NCoef="0" IVar="0" Cut="2.4658305664062500e+03" cType="0" res="-9.9000000000000000e+01" rms="0.0000000000000000e+00" purity="4.9923509359359741e-01" nType="0">
        <Node pos="l" depth="1" NCoef="0" IVar="-1" Cut="2.9911726074218750e+03" cType="0" res="-9.9000000000000000e+01" rms="0.0000000000000000e+00" purity="9.8490303754806519e-01" nType="1"/>
        <Node pos="r" depth="1" NCoef="0" IVar="0" Cut="5.1151431274414062e+02" cType="0" res="-9.9000000000000000e+01" rms="0.0000000000000000e+00" purity="3.7190157175064087e-01" nType="0">
          <Node pos="l" depth="2" NCoef="0" IVar="2" Cut="1.3522624206542969e+02" cType="0" res="-9.9000000000000000e+01" rms="0.0000000000000000e+00" purity="4.4799211621284485e-01" nType="0">
            <Node pos="l" depth="3" NCoef="0" IVar="-1" Cut="0.0000000000000000e+00" cType="1" res="-9.9000000000000000e+01" rms="0.0000000000000000e+00" purity="6.4463150501251221e-01" nType="1"/>
            <Node pos="r" depth="3" NCoef="0" IVar="-1" Cut="5.9837121582031250e+02" cType="0" res="-9.9000000000000000e+01" rms="0.0000000000000000e+00" purity="4.1002020239830017e-01" nType="-1"/>
          </Node>
          <Node pos="r" depth="2" NCoef="0" IVar="-1" Cut="5.0721151733398438e+02" cType="0" res="-9.9000000000000000e+01" rms="0.0000000000000000e+00" purity="1.4156706631183624e-02" nType="-1"/>
        </Node>
      </Node>
    </BinaryTree>
    <BinaryTree type="DecisionTree" boostWeight="7.3264413349283997e-01" itree="7">
      <Node pos="s" depth="0" NCoef="0" IVar="0" Cut="2.5435883789062500e+03" cType="0" res="-9.9000000000000000e+01" rms="0.0000000000000000e+00" purity="5.3542768955230713e-01" nType="0">
        <Node pos="l" depth="1" NCoef="0" IVar="-1" Cut="3.0360712890625000e+03" cType="0" res="-9.9000000000000000e+01" rms="0.0000000000000000e+00" purity="9.9011337757110596e-01" nType="1"/>
        <Node pos="r" depth="1" NCoef="0" IVar="0" Cut="5.2188024902343750e+02" cType="0" res="-9.9000000000000000e+01" rms="0.0000000000000000e+00" purity="4.3545106053352356e-01" nType="0">
          <Node pos="l" depth="2" NCoef="0" IVar="3" Cut="3.3810386657714844e+01" cType="1" res="-9.9000000000000000e+01" rms="0.0000000000000000e+00" purity="5.1359438896179199e-01" nType="0">
            <Node pos="l" depth="3" NCoef="0" IVar="0" Cut="1.1059149169921875e+03" cType="1" res="-9.9000000000000000e+01" rms="0.0000000000000000e+00" purity="5.6416726112365723e-01" nType="0">
              <Node pos="l" depth="4" NCoef="0" IVar="-1" Cut="9.8908398437500000e+02" cType="0" res="-9.9000000000000000e+01" rms="0.0000000000000000e+00" purity="6.6267371177673340e-01" nType="1"/>
              <Node pos="r" depth="4" NCoef="0" IVar="5" Cut="3.5126129150390625e+01" cType="1" res="-9.9000000000000000e+01" rms="0.0000000000000000e+00" purity="4.7979518771171570e-01" nType="0">
                <Node pos="l" depth="5" NCoef="0" IVar="-1" Cut="0.0000000000000000e+00" cType="1" res="-9.9000000000000000e+01" rms="0.0000000000000000e+00" purity="8.2567048072814941e-01" nType="1"/>
                <Node pos="r" depth="5" NCoef="0" IVar="-1" Cut="0.0000000000000000e+00" cType="1" res="-9.9000000000000000e+01" rms="0.0000000000000000e+00" purity="1.3960555195808411e-01" nType="-1"/>
              </Node>
            </Node>
            <Node pos="r" depth="3" NCoef="0" IVar="-1" Cut="3.4977779388427734e+01" cType="1" res="-9.9000000000000000e+01" rms="0.0000000000000000e+00" purity="3.5218074917793274e-01" nType="-1"/>
          </Node>
          <Node pos="r" depth="2" NCoef="0" IVar="-1" Cut="5.0714721679687500e+01" cType="0" res="-9.9000000000000000e+01" rms="0.0000000000000000e+00" purity="6.8804449401795864e-03" nType="-1"/>
        </Node>
      </Node>
    </BinaryTree>
    <BinaryTree type="DecisionTree" boostWeight="4.8350432379452618e-01" itree="8">
      <Node pos="s" depth="0" NCoef="0" IVar="0" Cut="2.3128046875000000e+03" cType="0" res="-9.9000000000000000e+01" rms="0.0000000000000000e+00" purity="5.3922045230865479e-01" nType="0">
        <Node pos="l" depth="1" NCoef="0" IVar="-1" Cut="2.9345283203125000e+03" cType="0" res="-9.9000000000000000e+01" rms="0.0000000000000000e+00" purity="9.5502179861068726e-01" nType="1"/>
        <Node pos="r" depth="1" NCoef="0" IVar="0" Cut="5.4091802978515625e+02" cType="0" res="-9.9000000000000000e+01" rms="0.0000000000000000e+00" purity="4.3977448344230652e-01" nType="0">
          <Node pos="l" depth="2" NCoef="0" IVar="0" Cut="8.5590130615234375e+02" cType="0" res="-9.9000000000000000e+01" rms="0.0000000000000000e+00" purity="5.1735502481460571e-01" nType="0">
            <Node pos="l" depth="3" NCoef="0" IVar="3" Cut="1.0142988586425781e+02" cType="0" res="-9.9000000000000000e+01" rms="0.0000000000000000e+00" purity="5.6079697608947754e-01" nType="0">
              <Node pos="l" depth="4" NCoef="0" IVar="-1" Cut="0.0000000000000000e+00" cType="1" res="-9.9000000000000000e+01" rms="0.0000000000000000e+00" purity="6.7817211151123047e-01" nType="1"/>
              <Node pos="r" depth="4" NCoef="0" IVar="2" Cut="1.6875675201416016e+01" cType="1" res="-9.9000000000000000e+01" rms="0.0000000000000000e+00" purity="5.3154379129409790e-01" nType="0">
                <Node pos="l" depth="5" NCoef="0" IVar="-1" Cut="0.0000000000000000e+00" cType="1" res="-9.9000000000000000e+01" rms="0.0000000000000000e+00" purity="5.8223247528076172e-01" nType="1"/>
                <Node pos="r" depth="5" NCoef="0" IVar="-1" Cut="0.0000000000000000e+00" cType="1" res="-9.9000000000000000e+01" rms="0.0000000000000000e+00" purity="4.0100279450416565e-01" nType="-1"/>
              </Node>
            </Node>
            <Node pos="r" depth="3" NCoef="0" IVar="3" Cut="3.3809154510498047e+01" cType="1" res="-9.9000000000000000e+01" rms="0.0000000000000000e+00" purity="4.0822646021842957e-01" nType="0">
              <Node pos="l" depth="4" NCoef="0" IVar="5" Cut="8.5875282287597656e+01" cType="1" res="-9.9000000000000000e+01" rms="0.0000000000000000e+00" purity="4.6579685807228088e-01" nType="0">
                <Node pos="l" depth="5" NCoef="0" IVar="-1" Cut="0.0000000000000000e+00" cType="1" res="-9.9000000000000000e+01" rms="0.0000000000000000e+00" purity="5.3453660011291504e-01" nType="1"/>
                <Node pos="r" depth="5" NCoef="0" IVar="-1" Cut="0.0000000000000000e+00" cType="1" res="-9.9000000000000000e+01" rms="0.0000000000000000e+00" purity="2.3169429600238800e-01" nType="-1"/>
              </Node>
              <Node pos="r" depth="4" NCoef="0" IVar="-1" Cut="7.0188995361328125e+02" cType="0" res="-9.9000000000000000e+01" rms="0.0000000000000000e+00" purity="2.0163711905479431e-01" nType="-1"/>
            </Node>
          </Node>
          <Node pos="r" depth="2" NCoef="0" IVar="-1" Cut="1.1833319091796875e+02" cType="0" res="-9.9000000000000000e+01" rms="0.0000000000000000e+00" purity="4.4003698974847794e-02" nType="-1"/>
        </Node>
      </Node>
    </BinaryTree>
    <BinaryTree type="DecisionTree" boostWeight="4.8049068732027250e-01" itree="9">
      <Node pos="s" depth="0" NCoef="0" IVar="0" Cut="2.3891276855468750e+03" cType="0" res="-9.9000000000000000e+01" rms="0.0000000000000000e+00" purity="5.0336360931396484e-01" nType="0">
        <Node pos="l" depth="1" NCoef="0" IVar="-1" Cut="2.9770185546875000e+03" cType="0" res="-9.9000000000000000e+01" rms="0.0000000000000000e+00" purity="9.4921088218688965e-01" nType="1"/>
        <Node pos="r" depth="1" NCoef="0" IVar="0" Cut="7.4330139160156250e+02" cType="0" res="-9.9000000000000000e+01" rms="0.0000000000000000e+00" purity="4.1023635864257812e-01" nType="0">
          <Node pos="l" depth="2" NCoef="0" IVar="0" Cut="1.2187496337890625e+03" cType="0" res="-9.9000000000000000e+01" rms="0.0000000000000000e+00" purity="5.1290345191955566e-01" nType="0">
            <Node pos="l" depth="3" NCoef="0" IVar="0" Cut="1.7909035644531250e+03" cType="1" res="-9.9000000000000000e+01" rms="0.0000000000000000e+00" purity="5.7538741827011108e-01" nType="0">
              <Node pos="l" depth="4" NCoef="0" IVar="-1" Cut="2.3708168029785156e+02" cType="0" res="-9.9000000000000000e+01" rms="0.0000000000000000e+00" purity="6.1862260103225708e-01" nType="1"/>
              <Node pos="r" depth="4" NCoef="0" IVar="-1" Cut="0.0000000000000000e+00" cType="1" res="-9.9000000000000000e+01" rms="0.0000000000000000e+00" purity="4.7025534510612488e-01" nType="-1"/>
            </Node>
            <Node pos="r" depth="3" NCoef="0" IVar="3" Cut="3.3635719299316406e+01" cType="0" res="-9.9000000000000000e+01" rms="0.0000000000000000e+00" purity="4.3218600749969482e-01" nType="0">
              <Node pos="l" depth="4" NCoef="0" IVar="0" Cut="9.1229510498046875e+02" cType="1" res="-9.9000000000000000e+01" rms="0.0000000000000000e+00" purity="5.5458098649978638e-01" nType="0">
                <Node pos="l" depth="5" NCoef="0" IVar="-1" Cut="0.0000000000000000e+00" cType="1" res="-9.9000000000000000e+01" rms="0.0000000000000000e+00" purity="6.4104026556015015e-01" nType="1"/>
                <Node pos="r" depth="5" NCoef="0" IVar="-1" Cut="0.0000000000000000e+00" cType="1" res="-9.9000000000000000e+01" rms="0.0000000000000000e+00" purity="4.6831035614013672e-01" nType="-1"/>
              </Node>
              <Node pos="r" depth="4" NCoef="0" IVar="-1" Cut="8.5898536682128906e+01" cType="1" res="-9.9000000000000000e+01" rms="0.0000000000000000e+00" purity="3.8219943642616272e-01" nType="-1"/>
            </Node>
          </Node>
          <Node pos="r" depth="2" NCoef="0" IVar="0" Cut="5.7764855957031250e+02" cType="0" res="-9.9000000000000000e+01" rms="0.0000000000000000e+00" purity="1.2869243323802948e-01" nType="0">
            <Node pos="l" depth="3" NCoef="0" IVar="2" Cut="3.3638351440429688e+01" cType="0" res="-9.9000000000000000e+01" rms="0.0000000000000000e+00" purity="3.1661996245384216e-01" nType="0">
              <Node pos="l" depth="4" NCoef="0" IVar="-1" Cut="0.0000000000000000e+00" cType="1" res="-9.9000000000000000e+01" rms="0.0000000000000000e+00" purity="5.7895839214324951e-01" nType="1"/>
              <Node pos="r" depth="4" NCoef="0" IVar="-1" Cut="1.6757946014404297e+01" cType="1" res="-9.9000000000000000e+01" rms="0.0000000000000000e+00" purity="2.3462998867034912e-01" nType="-1"/>
            </Node>
            <Node pos="r" depth="3" NCoef="0" IVar="-1" Cut="5.2059057617187500e+02" cType="0" res="-9.9000000000000000e+01" rms="0.0000000000000000e+00" purity="1.0908401571214199e-02" nType="-1"/>
          </Node>
        </Node>
      </Node>
    </BinaryTree>
    <BinaryTree type="DecisionTree" boostWeight="4.0734850076126444e-01" itree="10">
      <Node pos="s" depth="0" NCoef="0" IVar="0" Cut="2.6225136718750000e+03" cType="0" res="-9.9000000000000000e+01" rms="0.0000000000000000e+00" purity="4.7869551181793213e-01" nType="0">
        <Node pos="l" depth="1" NCoef="0" IVar="-1" Cut="3.0583195800781250e+03" cType="0" res="-9.9000000000000000e+01" rms="0.0000000000000000e+00" purity="9.8790860176086426e-01" nType="1"/>
        <Node pos="r" depth="1" NCoef="0" IVar="0" Cut="5.3240704345703125e+02" cType="0" res="-9.9000000000000000e+01" rms="0.0000000000000000e+00" purity="3.9874792098999023e-01" nType="0">
          <Node pos="l" depth="2" NCoef="0" IVar="0" Cut="8.1108392333984375e+02" cType="0" res="-9.9000000000000000e+01" rms="0.0000000000000000e+00" purity="4.4860145449638367e-01" nType="0">
            <Node pos="l" depth="3" NCoef="0" IVar="2" Cut="6.7613380432128906e+01" cType="1" res="-9.9000000000000000e+01" rms="0.0000000000000000e+00" purity="4.7385615110397339e-01" nType="0">
              <Node pos="l" depth="4" NCoef="0" IVar="5" Cut="9.7570602416992188e+01" cType="1" res="-9.9000000000000000e+01" rms="0.0000000000000000e+00" purity="5.0399881601333618e-01" nType="0">
                <Node pos="l" depth="5" NCoef="0" IVar="-1" Cut="0.0000000000000000e+00" cType="1" res="-9.9000000000000000e+01" rms="0.0000000000000000e+00" purity="5.4873627424240112e-01" nType="1"/>
                <Node pos="r" depth="5" NCoef="0" IVar="-1" Cut="0.0000000000000000e+00" cType="1" res="-9.9000000000000000e+01" rms="0.0000000000000000e+00" purity="4.1624408960342407e-01" nType="-1"/>
              </Node>
              <Node pos="r" depth="4" NCoef="0" IVar="-1" Cut="0.0000000000000000e+00" cType="1" res="-9.9000000000000000e+01" rms="0.0000000000000000e+00" purity="3.3295691013336182e-01" nType="-1"/>
            </Node>
            <Node pos="r" depth="3" NCoef="0" IVar="3" Cut="3.7189373779296875e+02" cType="0" res="-9.9000000000000000e+01" rms="0.0000000000000000e+00" purity="3.4357711672782898e-01" nType="0">
              <Node pos="l" depth="4" NCoef="0" IVar="-1" Cut="0.0000000000000000e+00" cType="1" res="-9.9000000000000000e+01" rms="0.0000000000000000e+00" purity="5.6884026527404785e-01" nType="1"/>
              <Node pos="r" depth="4" NCoef="0" IVar="3" Cut="8.2638874053955078e+00" cType="1" res="-9.9000000000000000e+01" rms="0.0000000000000000e+00" purity="3.1185480952262878e-01" nType="0">
                <Node pos="l" depth="5" NCoef="0" IVar="-1" Cut="0.0000000000000000e+00" cType="1" res="-9.9000000000000000e+01" rms="0.0000000000000000e+00" purity="5.3933966159820557e-01" nType="1"/>
                <Node pos="r" depth="5" NCoef="0" IVar="-1" Cut="0.0000000000000000e+00" cType="1" res="-9.9000000000000000e+01" rms="0.0000000000000000e+00" purity="1.5385718643665314e-01" nType="-1"/>
              </Node>
            </Node>
          </Node>
          <Node pos="r" depth="2" NCoef="0" IVar="-1" Cut="4.9667916870117188e+02" cType="0" res="-9.9000000000000000e+01" rms="0.0000000000000000e+00" purity="2.4694634601473808e-02" nType="-1"/>
        </Node>
      </Node>
    </BinaryTree>
    <BinaryTree type="DecisionTree" boostWeight="7.4268831077884390e-01" itree="11">
      <Node pos="s" depth="0" NCoef="0" IVar="0" Cut="2.7781044921875000e+03" cType="0" res="-9.9000000000000000e+01" rms="0.0000000000000000e+00" purity="5.1773720979690552e-01" nType="0">
        <Node pos="l" depth="1" NCoef="0" IVar="-1" Cut="3.1308129882812500e+03" cType="0" res="-9.9000000000000000e+01" rms="0.0000000000000000e+00" purity="9.9246603250503540e-01" nType="1"/>
        <Node pos="r" depth="1" NCoef="0" IVar="0" Cut="5.5311474609375000e+02" cType="0" res="-9.9000000000000000e+01" rms="0.0000000000000000e+00" purity="4.5799270272254944e-01" nType="0">
          <Node pos="l" depth="2" NCoef="0" IVar="5" Cut="3.7124847412109375e+02" cType="0" res="-9.9000000000000000e+01" rms="0.0000000000000000e+00" purity="5.0817549228668213e-01" nType="0">
            <Node pos="l" depth="3" NCoef="0" IVar="1" Cut="3.6466667175292969e+01" cType="1" res="-9.9000000000000000e+01" rms="0.0000000000000000e+00" purity="6.9078189134597778e-01" nType="0">
              <Node pos="l" depth="4" NCoef="0" IVar="-1" Cut="0.0000000000000000e+00" cType="1" res="-9.9000000000000000e+01" rms="0.0000000000000000e+00" purity="8.1769907474517822e-01" nType="1"/>
              <Node pos="r" depth="4" NCoef="0" IVar="-1" Cut="0.0000000000000000e+00" cType="1" res="-9.9000000000000000e+01" rms="0.0000000000000000e+00" purity="4.7031661868095398e-01" nType="-1"/>
            </Node>
            <Node pos="r" depth="3" NCoef="0" IVar="5" Cut="3.2999824523925781e+01" cType="1" res="-9.9000000000000000e+01" rms="0.0000000000000000e+00" purity="4.7212430834770203e-01" nType="0">
              <Node pos="l" depth="4" NCoef="0" IVar="1" Cut="2.1666666030883789e+01" cType="0" res="-9.9000000000000000e+01" rms="0.0000000000000000e+00" purity="7.1267265081405640e-01" nType="0">
                <Node pos="l" depth="5" NCoef="0" IVar="-1" Cut="0.0000000000000000e+00" cType="1" res="-9.9000000000000000e+01" rms="0.0000000000000000e+00" purity="8.4632188081741333e-01" nType="1"/>
                <Node pos="r" depth="5" NCoef="0" IVar="-1" Cut="0.0000000000000000e+00" cType="1" res="-9.9000000000000000e+01" rms="0.0000000000000000e+00" purity="3.4803709387779236e-01" nType="-1"/>
              </Node>
              <Node pos="r" depth="4" NCoef="0" IVar="-1" Cut="1.3071968078613281e+02" cType="0" res="-9.9000000000000000e+01" rms="0.0000000000000000e+00" purity="2.1458184719085693e-01" nType="-1"/>
            </Node>
          </Node>
          <Node pos="r" depth="2" NCoef="0" IVar="-1" Cut="5.2269085693359375e+02" cType="0" res="-9.9000000000000000e+01" rms="0.0000000000000000e+00" purity="9.0254798531532288e-02" nType="-1"/>
        </Node>
      </Node>
    </BinaryTree>
    <BinaryTree type="DecisionTree" boostWeight="4.7862219919060406e-01" itree="12">
      <Node pos="s" depth="0" NCoef="0" IVar="0" Cut="2.2338083496093750e+03" cType="0" res="-9.9000000000000000e+01" rms="0.0000000000000000e+00" purity="4.9408778548240662e-01" nType="0">
        <Node pos="l" depth="1" NCoef="0" IVar="-1" Cut="2.8906464843750000e+03" cType="0" res="-9.9000000000000000e+01" rms="0.0000000000000000e+00" purity="9.1327553987503052e-01" nType="1"/>
        <Node pos="r" depth="1" NCoef="0" IVar="0" Cut="5.7097430419921875e+02" cType="0" res="-9.9000000000000000e+01" rms="0.0000000000000000e+00" purity="4.2507380247116089e-01" nType="0">
          <Node pos="l" depth="2" NCoef="0" IVar="3" Cut="1.6905513763427734e+01" cType="0" res="-9.9000000000000000e+01" rms="0.0000000000000000e+00" purity="4.7325563430786133e-01" nType="0">
            <Node pos="l" depth="3" NCoef="0" IVar="3" Cut="4.3013583374023438e+02" cType="1" res="-9.9000000000000000e+01" rms="0.0000000000000000e+00" purity="5.7041424512863159e-01" nType="0">
              <Node pos="l" depth="4" NCoef="0" IVar="-1" Cut="2.3726579284667969e+02" cType="0" res="-9.9000000000000000e+01" rms="0.0000000000000000e+00" purity="5.8980494737625122e-01" nType="1"/>
              <Node pos="r" depth="4" NCoef="0" IVar="-1" Cut="0.0000000000000000e+00" cType="1" res="-9.9000000000000000e+01" rms="0.0000000000000000e+00" purity="1.8401688337326050e-01" nType="-1"/>
            </Node>
            <Node pos="r" depth="3" NCoef="0" IVar="1" Cut="3.1066667556762695e+01" cType="0" res="-9.9000000000000000e+01" rms="0.0000000000000000e+00" purity="4.0008044242858887e-01" nType="0">
              <Node pos="l" depth="4" NCoef="0" IVar="5" Cut="7.0566688537597656e+01" cType="1" res="-9.9000000000000000e+01" rms="0.0000000000000000e+00" purity="5.0884044170379639e-01" nType="0">
                <Node pos="l" depth="5" NCoef="0" IVar="-1" Cut="0.0000000000000000e+00" cType="1" res="-9.9000000000000000e+01" rms="0.0000000000000000e+00" purity="6.6725945472717285e-01" nType="1"/>
                <Node pos="r" depth="5" NCoef="0" IVar="-1" Cut="0.0000000000000000e+00" cType="1" res="-9.9000000000000000e+01" rms="0.0000000000000000e+00" purity="2.6276305317878723e-01" nType="-1"/>
              </Node>
              <Node pos="r" depth="4" NCoef="0" IVar="-1" Cut="1.2396658897399902e+01" cType="1" res="-9.9000000000000000e+01" rms="0.0000000000000000e+00" purity="2.9184755682945251e-01" nType="-1"/>
            </Node>
          </Node>
          <Node pos="r" depth="2" NCoef="0" IVar="-1" Cut="3.3823661804199219e+01" cType="0" res="-9.9000000000000000e+01" rms="0.0000000000000000e+00" purity="5.4783727973699570e-02" nType="-1"/>
        </Node>
      </Node>
    </BinaryTree>
    <BinaryTree type="DecisionTree" boostWeight="4.1326640437003304e-01" itree="13">
      <Node pos="s" depth="0" NCoef="0" IVar="0" Cut="2.2325573730468750e+03" cType="0" res="-9.9000000000000000e+01" rms="0.0000000000000000e+00" purity="5.0240916013717651e-01" nType="0">
        <Node pos="l" depth="1" NCoef="0" IVar="-1" Cut="2.8892331542968750e+03" cType="0" res="-9.9000000000000000e+01" rms="0.0000000000000000e+00" purity="9.0553915500640869e-01" nType="1"/>
        <Node pos="r" depth="1" NCoef="0" IVar="0" Cut="5.2531604003906250e+02" cType="0" res="-9.9000000000000000e+01" rms="0.0000000000000000e+00" purity="4.4020870327949524e-01" nType="0">
          <Node pos="l" depth="2" NCoef="0" IVar="2" Cut="1.3522622680664062e+02" cType="0" res="-9.9000000000000000e+01" rms="0.0000000000000000e+00" purity="4.7860008478164673e-01" nType="0">
            <Node pos="l" depth="3" NCoef="0" IVar="-1" Cut="0.0000000000000000e+00" cType="1" res="-9.9000000000000000e+01" rms="0.0000000000000000e+00" purity="6.2526011466979980e-01" nType="1"/>
            <Node pos="r" depth="3" NCoef="0" IVar="3" Cut="6.7617546081542969e+01" cType="0" res="-9.9000000000000000e+01" rms="0.0000000000000000e+00" purity="4.5301264524459839e-01" nType="0">
              <Node pos="l" depth="4" NCoef="0" IVar="1" Cut="4.6400001525878906e+01" cType="1" res="-9.9000000000000000e+01" rms="0.0000000000000000e+00" purity="6.0688328742980957e-01" nType="0">
                <Node pos="l" depth="5" NCoef="0" IVar="-1" Cut="0.0000000000000000e+00" cType="1" res="-9.9000000000000000e+01" rms="0.0000000000000000e+00" purity="6.5726786851882935e-01" nType="1"/>
                <Node pos="r" depth="5" NCoef="0" IVar="-1" Cut="0.0000000000000000e+00" cType="1" res="-9.9000000000000000e+01" rms="0.0000000000000000e+00" purity="1.9825492799282074e-01" nType="-1"/>
              </Node>
              <Node pos="r" depth="4" NCoef="0" IVar="1" Cut="5.5288887023925781e+01" cType="0" res="-9.9000000000000000e+01" rms="0.0000000000000000e+00" purity="4.0560510754585266e-01" nType="0">
                <Node pos="l" depth="5" NCoef="0" IVar="-1" Cut="0.0000000000000000e+00" cType="1" res="-9.9000000000000000e+01" rms="0.0000000000000000e+00" purity="5.5764687061309814e-01" nType="1"/>
                <Node pos="r" depth="5" NCoef="0" IVar="-1" Cut="0.0000000000000000e+00" cType="1" res="-9.9000000000000000e+01" rms="0.0000000000000000e+00" purity="3.5268858075141907e-01" nType="-1"/>
              </Node>
            </Node>
          </Node>
          <Node pos="r" depth="2" NCoef="0" IVar="-1" Cut="4.7639916992187500e+02" cType="0" res="-9.9000000000000000e+01" rms="0.0000000000000000e+00" purity="1.3358102180063725e-02" nType="-1"/>
        </Node>
      </Node>
    </BinaryTree>
    <BinaryTree type="DecisionTree" boostWeight="4.4559328504918200e-01" itree="14">
      <Node pos="s" depth="0" NCoef="0" IVar="0" Cut="2.6991037597656250e+03" cType="0" res="-9.9000000000000000e+01" rms="0.0000000000000000e+00" purity="4.9233379960060120e-01" nType="0">
        <Node pos="l" depth="1" NCoef="0" IVar="-1" Cut="3.1259396972656250e+03" cType="0" res="-9.9000000000000000e+01" rms="0.0000000000000000e+00" purity="9.7662246227264404e-01" nType="1"/>
        <Node pos="r" depth="1" NCoef="0" IVar="0" Cut="5.4257617187500000e+02" cType="0" res="-9.9000000000000000e+01" rms="0.0000000000000000e+00" purity="4.4431927800178528e-01" nType="0">
          <Node pos="l" depth="2" NCoef="0" IVar="3" Cut="1.6905977249145508e+01" cType="1" res="-9.9000000000000000e+01" rms="0.0000000000000000e+00" purity="4.7867116332054138e-01" nType="0">
            <Node pos="l" depth="3" NCoef="0" IVar="3" Cut="6.0116491317749023e+00" cType="0" res="-9.9000000000000000e+01" rms="0.0000000000000000e+00" purity="5.2830970287322998e-01" nType="0">
              <Node pos="l" depth="4" NCoef="0" IVar="0" Cut="8.7797039794921875e+02" cType="0" res="-9.9000000000000000e+01" rms="0.0000000000000000e+00" purity="6.0141485929489136e-01" nType="0">
                <Node pos="l" depth="5" NCoef="0" IVar="-1" Cut="0.0000000000000000e+00" cType="1" res="-9.9000000000000000e+01" rms="0.0000000000000000e+00" purity="6.7056536674499512e-01" nType="1"/>
                <Node pos="r" depth="5" NCoef="0" IVar="-1" Cut="0.0000000000000000e+00" cType="1" res="-9.9000000000000000e+01" rms="0.0000000000000000e+00" purity="3.3953878283500671e-01" nType="-1"/>
              </Node>
              <Node pos="r" depth="4" NCoef="0" IVar="5" Cut="4.7618373870849609e+01" cType="1" res="-9.9000000000000000e+01" rms="0.0000000000000000e+00" purity="4.1952404379844666e-01" nType="0">
                <Node pos="l" depth="5" NCoef="0" IVar="-1" Cut="0.0000000000000000e+00" cType="1" res="-9.9000000000000000e+01" rms="0.0000000000000000e+00" purity="6.5107971429824829e-01" nType="1"/>
                <Node pos="r" depth="5" NCoef="0" IVar="-1" Cut="0.0000000000000000e+00" cType="1" res="-9.9000000000000000e+01" rms="0.0000000000000000e+00" purity="1.2872712314128876e-01" nType="-1"/>
              </Node>
            </Node>
            <Node pos="r" depth="3" NCoef="0" IVar="-1" Cut="5.4133335113525391e+01" cType="1" res="-9.9000000000000000e+01" rms="0.0000000000000000e+00" purity="4.0291777253150940e-01" nType="-1"/>
          </Node>
          <Node pos="r" depth="2" NCoef="0" IVar="-1" Cut="3.3823699951171875e+01" cType="0" res="-9.9000000000000000e+01" rms="0.0000000000000000e+00" purity="6.2477331608533859e-02" nType="-1"/>
        </Node>
      </Node>
    </BinaryTree>
    <BinaryTree type="DecisionTree" boostWeight="3.1074550130132883e-01" itree="15">
      <Node pos="s" depth="0" NCoef="0" IVar="0" Cut="2.7004948730468750e+03" cType="0" res="-9.9000000000000000e+01" rms="0.0000000000000000e+00" purity="5.2625083923339844e-01" nType="0">
        <Node pos="l" depth="1" NCoef="0" IVar="-1" Cut="3.1275407714843750e+03" cType="0" res="-9.9000000000000000e+01" rms="0.0000000000000000e+00" purity="9.7041350603103638e-01" nType="1"/>
        <Node pos="r" depth="1" NCoef="0" IVar="0" Cut="5.4335925292968750e+02" cType="0" res="-9.9000000000000000e+01" rms="0.0000000000000000e+00" purity="4.8735442757606506e-01" nType="0">
          <Node pos="l" depth="2" NCoef="0" IVar="0" Cut="8.7890643310546875e+02" cType="0" res="-9.9000000000000000e+01" rms="0.0000000000000000e+00" purity="5.1926469802856445e-01" nType="0">
            <Node pos="l" depth="3" NCoef="0" IVar="1" Cut="3.1066667556762695e+01" cType="1" res="-9.9000000000000000e+01" rms="0.0000000000000000e+00" purity="5.5117821693420410e-01" nType="0">
              <Node pos="l" depth="4" NCoef="0" IVar="-1" Cut="2.1355556488037109e+01" cType="1" res="-9.9000000000000000e+01" rms="0.0000000000000000e+00" purity="6.1275160312652588e-01" nType="1"/>
              <Node pos="r" depth="4" NCoef="0" IVar="5" Cut="2.1396374511718750e+02" cType="1" res="-9.9000000000000000e+01" rms="0.0000000000000000e+00" purity="4.8763424158096313e-01" nType="0">
                <Node pos="l" depth="5" NCoef="0" IVar="-1" Cut="0.0000000000000000e+00" cType="1" res="-9.9000000000000000e+01" rms="0.0000000000000000e+00" purity="5.3393739461898804e-01" nType="1"/>
                <Node pos="r" depth="5" NCoef="0" IVar="-1" Cut="0.0000000000000000e+00" cType="1" res="-9.9000000000000000e+01" rms="0.0000000000000000e+00" purity="3.4581133723258972e-01" nType="-1"/>
              </Node>
            </Node>
            <Node pos="r" depth="3" NCoef="0" IVar="0" Cut="5.5827313232421875e+02" cType="1" res="-9.9000000000000000e+01" rms="0.0000000000000000e+00" purity="4.0790888667106628e-01" nType="0">
              <Node pos="l" depth="4" NCoef="0" IVar="-1" Cut="0.0000000000000000e+00" cType="1" res="-9.9000000000000000e+01" rms="0.0000000000000000e+00" purity="7.2356432676315308e-01" nType="1"/>
              <Node pos="r" depth="4" NCoef="0" IVar="-1" Cut="6.2240185546875000e+02" cType="0" res="-9.9000000000000000e+01" rms="0.0000000000000000e+00" purity="3.7069553136825562e-01" nType="-1"/>
            </Node>
          </Node>
          <Node pos="r" depth="2" NCoef="0" IVar="-1" Cut="2.8733333587646484e+01" cType="1" res="-9.9000000000000000e+01" rms="0.0000000000000000e+00" purity="1.0577166825532913e-01" nType="-1"/>
        </Node>
      </Node>
    </BinaryTree>
    <BinaryTree type="DecisionTree" boostWeight="3.5004354703408824e-01" itree="16">
      <Node pos="s" depth="0" NCoef="0" IVar="0" Cut="2.7763552246093750e+03" cType="0" res="-9.9000000000000000e+01" rms="0.0000000000000000e+00" purity="4.3883568048477173e-01" nType="0">
        <Node pos="l" depth="1" NCoef="0" IVar="-1" Cut="3.1288530273437500e+03" cType="0" res="-9.9000000000000000e+01" rms="0.0000000000000000e+00" purity="9.7419774532318115e-01" nType="1"/>
        <Node pos="r" depth="1" NCoef="0" IVar="0" Cut="4.9589660644531250e+02" cType="0" res="-9.9000000000000000e+01" rms="0.0000000000000000e+00" purity="3.9318731427192688e-01" nType="0">
          <Node pos="l" depth="2" NCoef="0" IVar="0" Cut="1.9654340820312500e+03" cType="0" res="-9.9000000000000000e+01" rms="0.0000000000000000e+00" purity="4.1220721602439880e-01" nType="0">
            <Node pos="l" depth="3" NCoef="0" IVar="-1" Cut="0.0000000000000000e+00" cType="1" res="-9.9000000000000000e+01" rms="0.0000000000000000e+00" purity="6.0694402456283569e-01" nType="1"/>
            <Node pos="r" depth="3" NCoef="0" IVar="0" Cut="1.5734735107421875e+03" cType="1" res="-9.9000000000000000e+01" rms="0.0000000000000000e+00" purity="3.8843649625778198e-01" nType="0">
              <Node pos="l" depth="4" NCoef="0" IVar="5" Cut="2.9925274658203125e+02" cType="0" res="-9.9000000000000000e+01" rms="0.0000000000000000e+00" purity="4.1434583067893982e-01" nType="0">
                <Node pos="l" depth="5" NCoef="0" IVar="-1" Cut="0.0000000000000000e+00" cType="1" res="-9.9000000000000000e+01" rms="0.0000000000000000e+00" purity="5.6822431087493896e-01" nType="1"/>
                <Node pos="r" depth="5" NCoef="0" IVar="-1" Cut="0.0000000000000000e+00" cType="1" res="-9.9000000000000000e+01" rms="0.0000000000000000e+00" purity="3.8873797655105591e-01" nType="-1"/>
              </Node>
              <Node pos="r" depth="4" NCoef="0" IVar="-1" Cut="0.0000000000000000e+00" cType="1" res="-9.9000000000000000e+01" rms="0.0000000000000000e+00" purity="2.5597772002220154e-01" nType="-1"/>
            </Node>
          </Node>
          <Node pos="r" depth="2" NCoef="0" IVar="-1" Cut="1.6911899566650391e+01" cType="0" res="-9.9000000000000000e+01" rms="0.0000000000000000e+00" purity="1.2196773290634155e-01" nType="-1"/>
        </Node>
      </Node>
    </BinaryTree>
    <BinaryTree type="DecisionTree" boostWeight="3.5484911835514438e-01" itree="17">
      <Node pos="s" depth="0" NCoef="0" IVar="0" Cut="2.8546191406250000e+03" cType="0" res="-9.9000000000000000e+01" rms="0.0000000000000000e+00" purity="4.7334635257720947e-01" nType="0">
        <Node pos="l" depth="1" NCoef="0" IVar="-1" Cut="3.1778249511718750e+03" cType="0" res="-9.9000000000000000e+01" rms="0.0000000000000000e+00" purity="9.8239678144454956e-01" nType="1"/>
        <Node pos="r" depth="1" NCoef="0" IVar="0" Cut="5.0460247802734375e+02" cType="0" res="-9.9000000000000000e+01" rms="0.0000000000000000e+00" purity="4.3742138147354126e-01" nType="0">
          <Node pos="l" depth="2" NCoef="0" IVar="0" Cut="7.1349005126953125e+02" cType="1" res="-9.9000000000000000e+01" rms="0.0000000000000000e+00" purity="4.6126875281333923e-01" nType="0">
            <Node pos="l" depth="3" NCoef="0" IVar="2" Cut="3.3790832519531250e+01" cType="0" res="-9.9000000000000000e+01" rms="0.0000000000000000e+00" purity="6.4321881532669067e-01" nType="0">
              <Node pos="l" depth="4" NCoef="0" IVar="-1" Cut="0.0000000000000000e+00" cType="1" res="-9.9000000000000000e+01" rms="0.0000000000000000e+00" purity="8.0583870410919189e-01" nType="1"/>
              <Node pos="r" depth="4" NCoef="0" IVar="2" Cut="6.7582492828369141e+00" cType="0" res="-9.9000000000000000e+01" rms="0.0000000000000000e+00" purity="5.5517154932022095e-01" nType="0">
                <Node pos="l" depth="5" NCoef="0" IVar="-1" Cut="0.0000000000000000e+00" cType="1" res="-9.9000000000000000e+01" rms="0.0000000000000000e+00" purity="6.8771886825561523e-01" nType="1"/>
                <Node pos="r" depth="5" NCoef="0" IVar="-1" Cut="0.0000000000000000e+00" cType="1" res="-9.9000000000000000e+01" rms="0.0000000000000000e+00" purity="3.4388563036918640e-01" nType="-1"/>
              </Node>
            </Node>
            <Node pos="r" depth="3" NCoef="0" IVar="2" Cut="8.4516639709472656e+01" cType="1" res="-9.9000000000000000e+01" rms="0.0000000000000000e+00" purity="4.2090767621994019e-01" nType="0">
              <Node pos="l" depth="4" NCoef="0" IVar="0" Cut="1.6650998535156250e+03" cType="0" res="-9.9000000000000000e+01" rms="0.0000000000000000e+00" purity="4.5142427086830139e-01" nType="0">
                <Node pos="l" depth="5" NCoef="0" IVar="-1" Cut="0.0000000000000000e+00" cType="1" res="-9.9000000000000000e+01" rms="0.0000000000000000e+00" purity="5.5710458755493164e-01" nType="1"/>
                <Node pos="r" depth="5" NCoef="0" IVar="-1" Cut="0.0000000000000000e+00" cType="1" res="-9.9000000000000000e+01" rms="0.0000000000000000e+00" purity="4.0228933095932007e-01" nType="-1"/>
              </Node>
              <Node pos="r" depth="4" NCoef="0" IVar="-1" Cut="0.0000000000000000e+00" cType="1" res="-9.9000000000000000e+01" rms="0.0000000000000000e+00" purity="2.8499937057495117e-01" nType="-1"/>
            </Node>
          </Node>
          <Node pos="r" depth="2" NCoef="0" IVar="-1" Cut="0.0000000000000000e+00" cType="1" res="-9.9000000000000000e+01" rms="0.0000000000000000e+00" purity="0.0000000000000000e+00" nType="-1"/>
        </Node>
      </Node>
    </BinaryTree>
    <BinaryTree type="DecisionTree" boostWeight="2.7781322260232022e-01" itree="18">
      <Node pos="s" depth="0" NCoef="0" IVar="0" Cut="2.8569125976562500e+03" cType="0" res="-9.9000000000000000e+01" rms="0.0000000000000000e+00" purity="5.6032150983810425e-01" nType="0">
        <Node pos="l" depth="1" NCoef="0" IVar="-1" Cut="3.1608308105468750e+03" cType="0" res="-9.9000000000000000e+01" rms="0.0000000000000000e+00" purity="9.9383950233459473e-01" nType="1"/>
        <Node pos="r" depth="1" NCoef="0" IVar="0" Cut="5.0849691772460938e+02" cType="0" res="-9.9000000000000000e+01" rms="0.0000000000000000e+00" purity="5.3449130058288574e-01" nType="0">
          <Node pos="l" depth="2" NCoef="0" IVar="0" Cut="6.1285430908203125e+02" cType="1" res="-9.9000000000000000e+01" rms="0.0000000000000000e+00" purity="5.5532944202423096e-01" nType="0">
            <Node pos="l" depth="3" NCoef="0" IVar="0" Cut="5.7342645263671875e+02" cType="0" res="-9.9000000000000000e+01" rms="0.0000000000000000e+00" purity="7.1299654245376587e-01" nType="0">
              <Node pos="l" depth="4" NCoef="0" IVar="-1" Cut="5.8656652832031250e+02" cType="1" res="-9.9000000000000000e+01" rms="0.0000000000000000e+00" purity="8.3750087022781372e-01" nType="1"/>
              <Node pos="r" depth="4" NCoef="0" IVar="0" Cut="5.3014141845703125e+02" cType="1" res="-9.9000000000000000e+01" rms="0.0000000000000000e+00" purity="4.0153563022613525e-01" nType="0">
                <Node pos="l" depth="5" NCoef="0" IVar="-1" Cut="0.0000000000000000e+00" cType="1" res="-9.9000000000000000e+01" rms="0.0000000000000000e+00" purity="7.0746409893035889e-01" nType="1"/>
                <Node pos="r" depth="5" NCoef="0" IVar="-1" Cut="0.0000000000000000e+00" cType="1" res="-9.9000000000000000e+01" rms="0.0000000000000000e+00" purity="1.1306738853454590e-01" nType="-1"/>
              </Node>
            </Node>
            <Node pos="r" depth="3" NCoef="0" IVar="1" Cut="1.9288888931274414e+01" cType="1" res="-9.9000000000000000e+01" rms="0.0000000000000000e+00" purity="5.3394198417663574e-01" nType="0">
              <Node pos="l" depth="4" NCoef="0" IVar="-1" Cut="1.4583099365234375e+02" cType="0" res="-9.9000000000000000e+01" rms="0.0000000000000000e+00" purity="6.1184859275817871e-01" nType="1"/>
              <Node pos="r" depth="4" NCoef="0" IVar="3" Cut="3.3753944396972656e+01" cType="1" res="-9.9000000000000000e+01" rms="0.0000000000000000e+00" purity="5.0509572029113770e-01" nType="0">
                <Node pos="l" depth="5" NCoef="0" IVar="-1" Cut="0.0000000000000000e+00" cType="1" res="-9.9000000000000000e+01" rms="0.0000000000000000e+00" purity="5.3717482089996338e-01" nType="1"/>
                <Node pos="r" depth="5" NCoef="0" IVar="-1" Cut="0.0000000000000000e+00" cType="1" res="-9.9000000000000000e+01" rms="0.0000000000000000e+00" purity="3.5511669516563416e-01" nType="-1"/>
              </Node>
            </Node>
          </Node>
          <Node pos="r" depth="2" NCoef="0" IVar="-1" Cut="1.6902304077148438e+02" cType="0" res="-9.9000000000000000e+01" rms="0.0000000000000000e+00" purity="1.6935004293918610e-01" nType="-1"/>
        </Node>
      </Node>
    </BinaryTree>
    <BinaryTree type="DecisionTree" boostWeight="2.6945848654522409e-01" itree="19">
      <Node pos="s" depth="0" NCoef="0" IVar="0" Cut="2.8567998046875000e+03" cType="0" res="-9.9000000000000000e+01" rms="0.0000000000000000e+00" purity="5.0655865669250488e-01" nType="0">
        <Node pos="l" depth="1" NCoef="0" IVar="-1" Cut="3.1607609863281250e+03" cType="0" res="-9.9000000000000000e+01" rms="0.0000000000000000e+00" purity="9.6061259508132935e-01" nType="1"/>
        <Node pos="r" depth="1" NCoef="0" IVar="2" Cut="1.0142938232421875e+02" cType="0" res="-9.9000000000000000e+01" rms="0.0000000000000000e+00" purity="4.7801792621612549e-01" nType="0">
          <Node pos="l" depth="2" NCoef="0" IVar="-1" Cut="6.8440100097656250e+02" cType="1" res="-9.9000000000000000e+01" rms="0.0000000000000000e+00" purity="5.8111184835433960e-01" nType="1"/>
          <Node pos="r" depth="2" NCoef="0" IVar="0" Cut="5.0811062622070312e+02" cType="0" res="-9.9000000000000000e+01" rms="0.0000000000000000e+00" purity="4.5198321342468262e-01" nType="0">
            <Node pos="l" depth="3" NCoef="0" IVar="0" Cut="1.4475462646484375e+03" cType="1" res="-9.9000000000000000e+01" rms="0.0000000000000000e+00" purity="4.7555774450302124e-01" nType="0">
              <Node pos="l" depth="4" NCoef="0" IVar="1" Cut="1.9288888931274414e+01" cType="1" res="-9.9000000000000000e+01" rms="0.0000000000000000e+00" purity="5.0491064786911011e-01" nType="0">
                <Node pos="l" depth="5" NCoef="0" IVar="-1" Cut="0.0000000000000000e+00" cType="1" res="-9.9000000000000000e+01" rms="0.0000000000000000e+00" purity="6.1045384407043457e-01" nType="1"/>
                <Node pos="r" depth="5" NCoef="0" IVar="-1" Cut="0.0000000000000000e+00" cType="1" res="-9.9000000000000000e+01" rms="0.0000000000000000e+00" purity="4.5061892271041870e-01" nType="-1"/>
              </Node>
              <Node pos="r" depth="4" NCoef="0" IVar="5" Cut="4.2203544616699219e+01" cType="1" res="-9.9000000000000000e+01" rms="0.0000000000000000e+00" purity="4.1975092887878418e-01" nType="0">
                <Node pos="l" depth="5" NCoef="0" IVar="-1" Cut="0.0000000000000000e+00" cType="1" res="-9.9000000000000000e+01" rms="0.0000000000000000e+00" purity="6.0441654920578003e-01" nType="1"/>
                <Node pos="r" depth="5" NCoef="0" IVar="-1" Cut="0.0000000000000000e+00" cType="1" res="-9.9000000000000000e+01" rms="0.0000000000000000e+00" purity="3.1978821754455566e-01" nType="-1"/>
              </Node>
            </Node>
            <Node pos="r" depth="3" NCoef="0" IVar="-1" Cut="2.6799999237060547e+01" cType="1" res="-9.9000000000000000e+01" rms="0.0000000000000000e+00" purity="4.4930625706911087e-02" nType="-1"/>
          </Node>
        </Node>
      </Node>
    </BinaryTree>
    <BinaryTree type="DecisionTree" boostWeight="3.0696346338174990e-01" itree="20">
      <Node pos="s" depth="0" NCoef="0" IVar="0" Cut="2.8558999023437500e+03" cType="0" res="-9.9000000000000000e+01" rms="0.0000000000000000e+00" purity="4.9879682064056396e-01" nType="0">
        <Node pos="l" depth="1" NCoef="0" IVar="-1" Cut="3.1791926269531250e+03" cType="0" res="-9.9000000000000000e+01" rms="0.0000000000000000e+00" purity="9.8759329319000244e-01" nType="1"/>
        <Node pos="r" depth="1" NCoef="0" IVar="0" Cut="5.0474951171875000e+02" cType="0" res="-9.9000000000000000e+01" rms="0.0000000000000000e+00" purity="4.7042393684387207e-01" nType="0">
          <Node pos="l" depth="2" NCoef="0" IVar="0" Cut="1.2884627685546875e+03" cType="0" res="-9.9000000000000000e+01" rms="0.0000000000000000e+00" purity="4.9080973863601685e-01" nType="0">
            <Node pos="l" depth="3" NCoef="0" IVar="5" Cut="1.2584326934814453e+02" cType="0" res="-9.9000000000000000e+01" rms="0.0000000000000000e+00" purity="5.4651349782943726e-01" nType="0">
              <Node pos="l" depth="4" NCoef="0" IVar="1" Cut="6.0555557250976562e+01" cType="1" res="-9.9000000000000000e+01" rms="0.0000000000000000e+00" purity="6.0656410455703735e-01" nType="0">
                <Node pos="l" depth="5" NCoef="0" IVar="-1" Cut="0.0000000000000000e+00" cType="1" res="-9.9000000000000000e+01" rms="0.0000000000000000e+00" purity="7.0969992876052856e-01" nType="1"/>
                <Node pos="r" depth="5" NCoef="0" IVar="-1" Cut="0.0000000000000000e+00" cType="1" res="-9.9000000000000000e+01" rms="0.0000000000000000e+00" purity="3.9720463752746582e-01" nType="-1"/>
              </Node>
              <Node pos="r" depth="4" NCoef="0" IVar="0" Cut="2.0199368896484375e+03" cType="0" res="-9.9000000000000000e+01" rms="0.0000000000000000e+00" purity="4.8286589980125427e-01" nType="0">
                <Node pos="l" depth="5" NCoef="0" IVar="-1" Cut="0.0000000000000000e+00" cType="1" res="-9.9000000000000000e+01" rms="0.0000000000000000e+00" purity="7.5301474332809448e-01" nType="1"/>
                <Node pos="r" depth="5" NCoef="0" IVar="-1" Cut="0.0000000000000000e+00" cType="1" res="-9.9000000000000000e+01" rms="0.0000000000000000e+00" purity="4.2751413583755493e-01" nType="-1"/>
              </Node>
            </Node>
            <Node pos="r" depth="3" NCoef="0" IVar="2" Cut="5.0709877014160156e+01" cType="1" res="-9.9000000000000000e+01" rms="0.0000000000000000e+00" purity="4.3827459216117859e-01" nType="0">
              <Node pos="l" depth="4" NCoef="0" IVar="2" Cut="1.5774686813354492e+01" cType="0" res="-9.9000000000000000e+01" rms="0.0000000000000000e+00" purity="4.7185072302818298e-01" nType="0">
                <Node pos="l" depth="5" NCoef="0" IVar="-1" Cut="0.0000000000000000e+00" cType="1" res="-9.9000000000000000e+01" rms="0.0000000000000000e+00" purity="5.8854115009307861e-01" nType="1"/>
                <Node pos="r" depth="5" NCoef="0" IVar="-1" Cut="0.0000000000000000e+00" cType="1" res="-9.9000000000000000e+01" rms="0.0000000000000000e+00" purity="4.4268631935119629e-01" nType="-1"/>
              </Node>
              <Node pos="r" depth="4" NCoef="0" IVar="-1" Cut="1.1381981658935547e+02" cType="0" res="-9.9000000000000000e+01" rms="0.0000000000000000e+00" purity="3.3161213994026184e-01" nType="-1"/>
            </Node>
          </Node>
          <Node pos="r" depth="2" NCoef="0" IVar="-1" Cut="4.3943801879882812e+02" cType="0" res="-9.9000000000000000e+01" rms="0.0000000000000000e+00" purity="3.9426442235708237e-02" nType="-1"/>
        </Node>
      </Node>
    </BinaryTree>
    <BinaryTree type="DecisionTree" boostWeight="1.9788816338943657e-01" itree="21">
      <Node pos="s" depth="0" NCoef="0" IVar="0" Cut="2.8560568847656250e+03" cType="0" res="-9.9000000000000000e+01" rms="0.0000000000000000e+00" purity="5.2116930484771729e-01" nType="0">
        <Node pos="l" depth="1" NCoef="0" IVar="-1" Cut="3.1983381347656250e+03" cType="0" res="-9.9000000000000000e+01" rms="0.0000000000000000e+00" purity="9.8644661903381348e-01" nType="1"/>
        <Node pos="r" depth="1" NCoef="0" IVar="0" Cut="5.0533755493164062e+02" cType="0" res="-9.9000000000000000e+01" rms="0.0000000000000000e+00" purity="4.9734234809875488e-01" nType="0">
          <Node pos="l" depth="2" NCoef="0" IVar="0" Cut="1.7068067626953125e+03" cType="1" res="-9.9000000000000000e+01" rms="0.0000000000000000e+00" purity="5.1227021217346191e-01" nType="0">
            <Node pos="l" depth="3" NCoef="0" IVar="3" Cut="3.8819943237304688e+02" cType="1" res="-9.9000000000000000e+01" rms="0.0000000000000000e+00" purity="5.4087001085281372e-01" nType="0">
              <Node pos="l" depth="4" NCoef="0" IVar="-1" Cut="1.5527124023437500e+02" cType="0" res="-9.9000000000000000e+01" rms="0.0000000000000000e+00" purity="5.4918849468231201e-01" nType="1"/>
              <Node pos="r" depth="4" NCoef="0" IVar="-1" Cut="0.0000000000000000e+00" cType="1" res="-9.9000000000000000e+01" rms="0.0000000000000000e+00" purity="2.7495059370994568e-01" nType="-1"/>
            </Node>
            <Node pos="r" depth="3" NCoef="0" IVar="-1" Cut="0.0000000000000000e+00" cType="1" res="-9.9000000000000000e+01" rms="0.0000000000000000e+00" purity="3.9929088950157166e-01" nType="-1"/>
          </Node>
          <Node pos="r" depth="2" NCoef="0" IVar="2" Cut="3.3809837341308594e+01" cType="0" res="-9.9000000000000000e+01" rms="0.0000000000000000e+00" purity="2.0510101318359375e-01" nType="0">
            <Node pos="l" depth="3" NCoef="0" IVar="-1" Cut="0.0000000000000000e+00" cType="1" res="-9.9000000000000000e+01" rms="0.0000000000000000e+00" purity="5.8836954832077026e-01" nType="1"/>
            <Node pos="r" depth="3" NCoef="0" IVar="-1" Cut="6.7616901397705078e+00" cType="1" res="-9.9000000000000000e+01" rms="0.0000000000000000e+00" purity="3.1087968498468399e-02" nType="-1"/>
          </Node>
        </Node>
      </Node>
    </BinaryTree>
    <BinaryTree type="DecisionTree" boostWeight="2.3775698205511811e-01" itree="22">
      <Node pos="s" depth="0" NCoef="0" IVar="0" Cut="2.8546191406250000e+03" cType="0" res="-9.9000000000000000e+01" rms="0.0000000000000000e+00" purity="5.0211000442504883e-01" nType="0">
        <Node pos="l" depth="1" NCoef="0" IVar="-1" Cut="3.1778425292968750e+03" cType="0" res="-9.9000000000000000e+01" rms="0.0000000000000000e+00" purity="9.6511536836624146e-01" nType="1"/>
        <Node pos="r" depth="1" NCoef="0" IVar="0" Cut="7.3959875488281250e+02" cType="0" res="-9.9000000000000000e+01" rms="0.0000000000000000e+00" purity="4.7776609659194946e-01" nType="0">
          <Node pos="l" depth="2" NCoef="0" IVar="3" Cut="2.5315046691894531e+02" cType="0" res="-9.9000000000000000e+01" rms="0.0000000000000000e+00" purity="5.0490653514862061e-01" nType="0">
            <Node pos="l" depth="3" NCoef="0" IVar="-1" Cut="0.0000000000000000e+00" cType="1" res="-9.9000000000000000e+01" rms="0.0000000000000000e+00" purity="6.3199871778488159e-01" nType="1"/>
            <Node pos="r" depth="3" NCoef="0" IVar="0" Cut="1.1156070556640625e+03" cType="1" res="-9.9000000000000000e+01" rms="0.0000000000000000e+00" purity="4.9330219626426697e-01" nType="0">
              <Node pos="l" depth="4" NCoef="0" IVar="2" Cut="3.3755046844482422e+01" cType="1" res="-9.9000000000000000e+01" rms="0.0000000000000000e+00" purity="5.4407119750976562e-01" nType="0">
                <Node pos="l" depth="5" NCoef="0" IVar="-1" Cut="0.0000000000000000e+00" cType="1" res="-9.9000000000000000e+01" rms="0.0000000000000000e+00" purity="5.8066689968109131e-01" nType="1"/>
                <Node pos="r" depth="5" NCoef="0" IVar="-1" Cut="0.0000000000000000e+00" cType="1" res="-9.9000000000000000e+01" rms="0.0000000000000000e+00" purity="4.3825900554656982e-01" nType="-1"/>
              </Node>
              <Node pos="r" depth="4" NCoef="0" IVar="-1" Cut="5.6253623962402344e+00" cType="0" res="-9.9000000000000000e+01" rms="0.0000000000000000e+00" purity="4.6652558445930481e-01" nType="-1"/>
            </Node>
          </Node>
          <Node pos="r" depth="2" NCoef="0" IVar="2" Cut="1.6911824035644531e+02" cType="0" res="-9.9000000000000000e+01" rms="0.0000000000000000e+00" purity="3.6281126737594604e-01" nType="0">
            <Node pos="l" depth="3" NCoef="0" IVar="-1" Cut="1.6907653808593750e+02" cType="0" res="-9.9000000000000000e+01" rms="0.0000000000000000e+00" purity="7.4448311328887939e-01" nType="1"/>
            <Node pos="r" depth="3" NCoef="0" IVar="0" Cut="6.4559320068359375e+02" cType="0" res="-9.9000000000000000e+01" rms="0.0000000000000000e+00" purity="2.5493946671485901e-01" nType="0">
              <Node pos="l" depth="4" NCoef="0" IVar="2" Cut="3.7487249374389648e+00" cType="1" res="-9.9000000000000000e+01" rms="0.0000000000000000e+00" purity="4.7091332077980042e-01" nType="0">
                <Node pos="l" depth="5" NCoef="0" IVar="-1" Cut="0.0000000000000000e+00" cType="1" res="-9.9000000000000000e+01" rms="0.0000000000000000e+00" purity="6.5223348140716553e-01" nType="1"/>
                <Node pos="r" depth="5" NCoef="0" IVar="-1" Cut="0.0000000000000000e+00" cType="1" res="-9.9000000000000000e+01" rms="0.0000000000000000e+00" purity="3.3474847674369812e-01" nType="-1"/>
              </Node>
              <Node pos="r" depth="4" NCoef="0" IVar="-1" Cut="1.5213887023925781e+02" cType="0" res="-9.9000000000000000e+01" rms="0.0000000000000000e+00" purity="1.3343638181686401e-01" nType="-1"/>
            </Node>
          </Node>
        </Node>
      </Node>
    </BinaryTree>
    <BinaryTree type="DecisionTree" boostWeight="3.3401701775869191e-01" itree="23">
      <Node pos="s" depth="0" NCoef="0" IVar="0" Cut="2.6997729492187500e+03" cType="0" res="-9.9000000000000000e+01" rms="0.0000000000000000e+00" purity="5.1432281732559204e-01" nType="0">
        <Node pos="l" depth="1" NCoef="0" IVar="-1" Cut="3.1260864257812500e+03" cType="0" res="-9.9000000000000000e+01" rms="0.0000000000000000e+00" purity="9.3204611539840698e-01" nType="1"/>
        <Node pos="r" depth="1" NCoef="0" IVar="0" Cut="6.5693664550781250e+02" cType="0" res="-9.9000000000000000e+01" rms="0.0000000000000000e+00" purity="4.9033841490745544e-01" nType="0">
          <Node pos="l" depth="2" NCoef="0" IVar="1" Cut="4.6599998474121094e+01" cType="0" res="-9.9000000000000000e+01" rms="0.0000000000000000e+00" purity="5.2403134107589722e-01" nType="0">
            <Node pos="l" depth="3" NCoef="0" IVar="5" Cut="1.8850894165039062e+02" cType="1" res="-9.9000000000000000e+01" rms="0.0000000000000000e+00" purity="6.1252433061599731e-01" nType="0">
              <Node pos="l" depth="4" NCoef="0" IVar="5" Cut="6.3582874298095703e+01" cType="1" res="-9.9000000000000000e+01" rms="0.0000000000000000e+00" purity="6.8908274173736572e-01" nType="0">
                <Node pos="l" depth="5" NCoef="0" IVar="-1" Cut="0.0000000000000000e+00" cType="1" res="-9.9000000000000000e+01" rms="0.0000000000000000e+00" purity="8.7688267230987549e-01" nType="1"/>
                <Node pos="r" depth="5" NCoef="0" IVar="-1" Cut="0.0000000000000000e+00" cType="1" res="-9.9000000000000000e+01" rms="0.0000000000000000e+00" purity="4.7381529211997986e-01" nType="-1"/>
              </Node>
              <Node pos="r" depth="4" NCoef="0" IVar="0" Cut="1.2914395751953125e+03" cType="0" res="-9.9000000000000000e+01" rms="0.0000000000000000e+00" purity="4.5876947045326233e-01" nType="0">
                <Node pos="l" depth="5" NCoef="0" IVar="-1" Cut="0.0000000000000000e+00" cType="1" res="-9.9000000000000000e+01" rms="0.0000000000000000e+00" purity="5.3068739175796509e-01" nType="1"/>
                <Node pos="r" depth="5" NCoef="0" IVar="-1" Cut="0.0000000000000000e+00" cType="1" res="-9.9000000000000000e+01" rms="0.0000000000000000e+00" purity="2.1637663245201111e-01" nType="-1"/>
              </Node>
            </Node>
            <Node pos="r" depth="3" NCoef="0" IVar="3" Cut="1.8499411010742188e+02" cType="0" res="-9.9000000000000000e+01" rms="0.0000000000000000e+00" purity="4.7935593128204346e-01" nType="0">
              <Node pos="l" depth="4" NCoef="0" IVar="-1" Cut="0.0000000000000000e+00" cType="1" res="-9.9000000000000000e+01" rms="0.0000000000000000e+00" purity="6.4480179548263550e-01" nType="1"/>
              <Node pos="r" depth="4" NCoef="0" IVar="1" Cut="3.7822223663330078e+01" cType="0" res="-9.9000000000000000e+01" rms="0.0000000000000000e+00" purity="4.4626027345657349e-01" nType="0">
                <Node pos="l" depth="5" NCoef="0" IVar="-1" Cut="0.0000000000000000e+00" cType="1" res="-9.9000000000000000e+01" rms="0.0000000000000000e+00" purity="5.8412754535675049e-01" nType="1"/>
                <Node pos="r" depth="5" NCoef="0" IVar="-1" Cut="0.0000000000000000e+00" cType="1" res="-9.9000000000000000e+01" rms="0.0000000000000000e+00" purity="4.1963160037994385e-01" nType="-1"/>
              </Node>
            </Node>
          </Node>
          <Node pos="r" depth="2" NCoef="0" IVar="2" Cut="1.6895356750488281e+02" cType="0" res="-9.9000000000000000e+01" rms="0.0000000000000000e+00" purity="2.3315957188606262e-01" nType="0">
            <Node pos="l" depth="3" NCoef="0" IVar="-1" Cut="0.0000000000000000e+00" cType="1" res="-9.9000000000000000e+01" rms="0.0000000000000000e+00" purity="6.8677788972854614e-01" nType="1"/>
            <Node pos="r" depth="3" NCoef="0" IVar="-1" Cut="1.7622222900390625e+01" cType="1" res="-9.9000000000000000e+01" rms="0.0000000000000000e+00" purity="1.0104910284280777e-01" nType="-1"/>
          </Node>
        </Node>
      </Node>
    </BinaryTree>
    <BinaryTree type="DecisionTree" boostWeight="3.0092671750628858e-01" itree="24">
      <Node pos="s" depth="0" NCoef="0" IVar="0" Cut="2.9325197753906250e+03" cType="0" res="-9.9000000000000000e+01" rms="0.0000000000000000e+00" purity="5.1779115200042725e-01" nType="0">
        <Node pos="l" depth="1" NCoef="0" IVar="-1" Cut="3.2780510253906250e+03" cType="0" res="-9.9000000000000000e+01" rms="0.0000000000000000e+00" purity="9.9410307407379150e-01" nType="1"/>
        <Node pos="r" depth="1" NCoef="0" IVar="0" Cut="5.7428948974609375e+02" cType="0" res="-9.9000000000000000e+01" rms="0.0000000000000000e+00" purity="4.9807530641555786e-01" nType="0">
          <Node pos="l" depth="2" NCoef="0" IVar="1" Cut="6.0777778625488281e+01" cType="0" res="-9.9000000000000000e+01" rms="0.0000000000000000e+00" purity="5.2328103780746460e-01" nType="0">
            <Node pos="l" depth="3" NCoef="0" IVar="5" Cut="1.7874191284179688e+02" cType="1" res="-9.9000000000000000e+01" rms="0.0000000000000000e+00" purity="6.0426783561706543e-01" nType="0">
              <Node pos="l" depth="4" NCoef="0" IVar="-1" Cut="6.8631790161132812e+01" cType="1" res="-9.9000000000000000e+01" rms="0.0000000000000000e+00" purity="7.8884178400039673e-01" nType="1"/>
              <Node pos="r" depth="4" NCoef="0" IVar="-1" Cut="1.6874395370483398e+01" cType="1" res="-9.9000000000000000e+01" rms="0.0000000000000000e+00" purity="2.9594019055366516e-01" nType="-1"/>
            </Node>
            <Node pos="r" depth="3" NCoef="0" IVar="0" Cut="1.3079310302734375e+03" cType="0" res="-9.9000000000000000e+01" rms="0.0000000000000000e+00" purity="4.9929460883140564e-01" nType="0">
              <Node pos="l" depth="4" NCoef="0" IVar="5" Cut="1.0430130004882812e+02" cType="0" res="-9.9000000000000000e+01" rms="0.0000000000000000e+00" purity="5.4005897045135498e-01" nType="0">
                <Node pos="l" depth="5" NCoef="0" IVar="-1" Cut="0.0000000000000000e+00" cType="1" res="-9.9000000000000000e+01" rms="0.0000000000000000e+00" purity="6.3971310853958130e-01" nType="1"/>
                <Node pos="r" depth="5" NCoef="0" IVar="-1" Cut="0.0000000000000000e+00" cType="1" res="-9.9000000000000000e+01" rms="0.0000000000000000e+00" purity="4.5464804768562317e-01" nType="-1"/>
              </Node>
              <Node pos="r" depth="4" NCoef="0" IVar="1" Cut="1.2311111450195312e+01" cType="1" res="-9.9000000000000000e+01" rms="0.0000000000000000e+00" purity="4.6807333827018738e-01" nType="0">
                <Node pos="l" depth="5" NCoef="0" IVar="-1" Cut="0.0000000000000000e+00" cType="1" res="-9.9000000000000000e+01" rms="0.0000000000000000e+00" purity="5.6688743829727173e-01" nType="1"/>
                <Node pos="r" depth="5" NCoef="0" IVar="-1" Cut="0.0000000000000000e+00" cType="1" res="-9.9000000000000000e+01" rms="0.0000000000000000e+00" purity="4.4385480880737305e-01" nType="-1"/>
              </Node>
            </Node>
          </Node>
          <Node pos="r" depth="2" NCoef="0" IVar="3" Cut="1.1834999847412109e+02" cType="0" res="-9.9000000000000000e+01" rms="0.0000000000000000e+00" purity="1.3107706606388092e-01" nType="0">
            <Node pos="l" depth="3" NCoef="0" IVar="3" Cut="2.4687300109863281e+02" cType="1" res="-9.9000000000000000e+01" rms="0.0000000000000000e+00" purity="2.6177883148193359e-01" nType="0">
              <Node pos="l" depth="4" NCoef="0" IVar="-1" Cut="0.0000000000000000e+00" cType="1" res="-9.9000000000000000e+01" rms="0.0000000000000000e+00" purity="5.4326319694519043e-01" nType="1"/>
              <Node pos="r" depth="4" NCoef="0" IVar="-1" Cut="0.0000000000000000e+00" cType="1" res="-9.9000000000000000e+01" rms="0.0000000000000000e+00" purity="0.0000000000000000e+00" nType="-1"/>
            </Node>
            <Node pos="r" depth="3" NCoef="0" IVar="-1" Cut="0.0000000000000000e+00" cType="1" res="-9.9000000000000000e+01" rms="0.0000000000000000e+00" purity="0.0000000000000000e+00" nType="-1"/>
          </Node>
        </Node>
      </Node>
    </BinaryTree>
    <BinaryTree type="DecisionTree" boostWeight="2.7329596270672440e-01" itree="25">
      <Node pos="s" depth="0" NCoef="0" IVar="0" Cut="2.7012363281250000e+03" cType="0" res="-9.9000000000000000e+01" rms="0.0000000000000000e+00" purity="5.1944553852081299e-01" nType="0">
        <Node pos="l" depth="1" NCoef="0" IVar="-1" Cut="3.1279248046875000e+03" cType="0" res="-9.9000000000000000e+01" rms="0.0000000000000000e+00" purity="9.2235589027404785e-01" nType="1"/>
        <Node pos="r" depth="1" NCoef="0" IVar="0" Cut="5.4568347167968750e+02" cType="0" res="-9.9000000000000000e+01" rms="0.0000000000000000e+00" purity="5.0016957521438599e-01" nType="0">
          <Node pos="l" depth="2" NCoef="0" IVar="0" Cut="1.4078875732421875e+03" cType="1" res="-9.9000000000000000e+01" rms="0.0000000000000000e+00" purity="5.1896280050277710e-01" nType="0">
            <Node pos="l" depth="3" NCoef="0" IVar="0" Cut="8.3306878662109375e+02" cType="0" res="-9.9000000000000000e+01" rms="0.0000000000000000e+00" purity="5.6436967849731445e-01" nType="0">
              <Node pos="l" depth="4" NCoef="0" IVar="2" Cut="3.3753635406494141e+01" cType="1" res="-9.9000000000000000e+01" rms="0.0000000000000000e+00" purity="6.1024963855743408e-01" nType="0">
                <Node pos="l" depth="5" NCoef="0" IVar="-1" Cut="0.0000000000000000e+00" cType="1" res="-9.9000000000000000e+01" rms="0.0000000000000000e+00" purity="6.4079874753952026e-01" nType="1"/>
                <Node pos="r" depth="5" NCoef="0" IVar="-1" Cut="0.0000000000000000e+00" cType="1" res="-9.9000000000000000e+01" rms="0.0000000000000000e+00" purity="4.9905481934547424e-01" nType="-1"/>
              </Node>
              <Node pos="r" depth="4" NCoef="0" IVar="1" Cut="3.6466667175292969e+01" cType="0" res="-9.9000000000000000e+01" rms="0.0000000000000000e+00" purity="4.6020343899726868e-01" nType="0">
                <Node pos="l" depth="5" NCoef="0" IVar="-1" Cut="0.0000000000000000e+00" cType="1" res="-9.9000000000000000e+01" rms="0.0000000000000000e+00" purity="6.4526230096817017e-01" nType="1"/>
                <Node pos="r" depth="5" NCoef="0" IVar="-1" Cut="0.0000000000000000e+00" cType="1" res="-9.9000000000000000e+01" rms="0.0000000000000000e+00" purity="3.7354359030723572e-01" nType="-1"/>
              </Node>
            </Node>
            <Node pos="r" depth="3" NCoef="0" IVar="5" Cut="6.2923358917236328e+01" cType="1" res="-9.9000000000000000e+01" rms="0.0000000000000000e+00" purity="4.4565168023109436e-01" nType="0">
              <Node pos="l" depth="4" NCoef="0" IVar="-1" Cut="0.0000000000000000e+00" cType="1" res="-9.9000000000000000e+01" rms="0.0000000000000000e+00" purity="5.4741847515106201e-01" nType="1"/>
              <Node pos="r" depth="4" NCoef="0" IVar="-1" Cut="0.0000000000000000e+00" cType="1" res="-9.9000000000000000e+01" rms="0.0000000000000000e+00" purity="3.8642302155494690e-01" nType="-1"/>
            </Node>
          </Node>
          <Node pos="r" depth="2" NCoef="0" IVar="-1" Cut="2.6799999237060547e+01" cType="1" res="-9.9000000000000000e+01" rms="0.0000000000000000e+00" purity="1.1606886237859726e-01" nType="-1"/>
        </Node>
      </Node>
    </BinaryTree>
    <BinaryTree type="DecisionTree" boostWeight="3.5725126259115947e-01" itree="26">
      <Node pos="s" depth="0" NCoef="0" IVar="0" Cut="2.7775932617187500e+03" cType="0" res="-9.9000000000000000e+01" rms="0.0000000000000000e+00" purity="5.2411544322967529e-01" nType="0">
        <Node pos="l" depth="1" NCoef="0" IVar="-1" Cut="3.1502670898437500e+03" cType="0" res="-9.9000000000000000e+01" rms="0.0000000000000000e+00" purity="9.1410553455352783e-01" nType="1"/>
        <Node pos="r" depth="1" NCoef="0" IVar="0" Cut="5.0017004394531250e+02" cType="0" res="-9.9000000000000000e+01" rms="0.0000000000000000e+00" purity="5.0585687160491943e-01" nType="0">
          <Node pos="l" depth="2" NCoef="0" IVar="0" Cut="1.0062504882812500e+03" cType="0" res="-9.9000000000000000e+01" rms="0.0000000000000000e+00" purity="5.2052825689315796e-01" nType="0">
            <Node pos="l" depth="3" NCoef="0" IVar="1" Cut="3.4733333587646484e+01" cType="1" res="-9.9000000000000000e+01" rms="0.0000000000000000e+00" purity="5.5689197778701782e-01" nType="0">
              <Node pos="l" depth="4" NCoef="0" IVar="-1" Cut="1.2817224121093750e+03" cType="0" res="-9.9000000000000000e+01" rms="0.0000000000000000e+00" purity="6.0296154022216797e-01" nType="1"/>
              <Node pos="r" depth="4" NCoef="0" IVar="5" Cut="4.7123695373535156e+01" cType="1" res="-9.9000000000000000e+01" rms="0.0000000000000000e+00" purity="5.0949376821517944e-01" nType="0">
                <Node pos="l" depth="5" NCoef="0" IVar="-1" Cut="0.0000000000000000e+00" cType="1" res="-9.9000000000000000e+01" rms="0.0000000000000000e+00" purity="8.5001659393310547e-01" nType="1"/>
                <Node pos="r" depth="5" NCoef="0" IVar="-1" Cut="0.0000000000000000e+00" cType="1" res="-9.9000000000000000e+01" rms="0.0000000000000000e+00" purity="3.2743775844573975e-01" nType="-1"/>
              </Node>
            </Node>
            <Node pos="r" depth="3" NCoef="0" IVar="2" Cut="1.6895530700683594e+01" cType="1" res="-9.9000000000000000e+01" rms="0.0000000000000000e+00" purity="4.4493854045867920e-01" nType="0">
              <Node pos="l" depth="4" NCoef="0" IVar="0" Cut="6.4637121582031250e+02" cType="0" res="-9.9000000000000000e+01" rms="0.0000000000000000e+00" purity="4.7877383232116699e-01" nType="0">
                <Node pos="l" depth="5" NCoef="0" IVar="-1" Cut="0.0000000000000000e+00" cType="1" res="-9.9000000000000000e+01" rms="0.0000000000000000e+00" purity="5.3168356418609619e-01" nType="1"/>
                <Node pos="r" depth="5" NCoef="0" IVar="-1" Cut="0.0000000000000000e+00" cType="1" res="-9.9000000000000000e+01" rms="0.0000000000000000e+00" purity="2.0689126849174500e-01" nType="-1"/>
              </Node>
              <Node pos="r" depth="4" NCoef="0" IVar="0" Cut="5.5640747070312500e+02" cType="1" res="-9.9000000000000000e+01" rms="0.0000000000000000e+00" purity="3.5777837038040161e-01" nType="0">
                <Node pos="l" depth="5" NCoef="0" IVar="-1" Cut="0.0000000000000000e+00" cType="1" res="-9.9000000000000000e+01" rms="0.0000000000000000e+00" purity="7.4235272407531738e-01" nType="1"/>
                <Node pos="r" depth="5" NCoef="0" IVar="-1" Cut="0.0000000000000000e+00" cType="1" res="-9.9000000000000000e+01" rms="0.0000000000000000e+00" purity="2.6861071586608887e-01" nType="-1"/>
              </Node>
            </Node>
          </Node>
          <Node pos="r" depth="2" NCoef="0" IVar="-1" Cut="1.6878317260742188e+02" cType="0" res="-9.9000000000000000e+01" rms="0.0000000000000000e+00" purity="1.3009913265705109e-01" nType="-1"/>
        </Node>
      </Node>
    </BinaryTree>
    <BinaryTree type="DecisionTree" boostWeight="1.6256211418007308e-01" itree="27">
      <Node pos="s" depth="0" NCoef="0" IVar="0" Cut="2.7003090820312500e+03" cType="0" res="-9.9000000000000000e+01" rms="0.0000000000000000e+00" purity="4.7881561517715454e-01" nType="0">
        <Node pos="l" depth="1" NCoef="0" IVar="-1" Cut="3.1274621582031250e+03" cType="0" res="-9.9000000000000000e+01" rms="0.0000000000000000e+00" purity="8.9493018388748169e-01" nType="1"/>
        <Node pos="r" depth="1" NCoef="0" IVar="0" Cut="4.8746286010742188e+02" cType="0" res="-9.9000000000000000e+01" rms="0.0000000000000000e+00" purity="4.5923960208892822e-01" nType="0">
          <Node pos="l" depth="2" NCoef="0" IVar="0" Cut="5.8581207275390625e+02" cType="1" res="-9.9000000000000000e+01" rms="0.0000000000000000e+00" purity="4.6830239892005920e-01" nType="0">
            <Node pos="l" depth="3" NCoef="0" IVar="2" Cut="3.3756725311279297e+01" cType="0" res="-9.9000000000000000e+01" rms="0.0000000000000000e+00" purity="6.1738777160644531e-01" nType="0">
              <Node pos="l" depth="4" NCoef="0" IVar="-1" Cut="0.0000000000000000e+00" cType="1" res="-9.9000000000000000e+01" rms="0.0000000000000000e+00" purity="8.2000380754470825e-01" nType="1"/>
              <Node pos="r" depth="4" NCoef="0" IVar="3" Cut="1.6859475708007812e+02" cType="0" res="-9.9000000000000000e+01" rms="0.0000000000000000e+00" purity="4.6674406528472900e-01" nType="0">
                <Node pos="l" depth="5" NCoef="0" IVar="-1" Cut="0.0000000000000000e+00" cType="1" res="-9.9000000000000000e+01" rms="0.0000000000000000e+00" purity="6.7663460969924927e-01" nType="1"/>
                <Node pos="r" depth="5" NCoef="0" IVar="-1" Cut="0.0000000000000000e+00" cType="1" res="-9.9000000000000000e+01" rms="0.0000000000000000e+00" purity="2.5610855221748352e-01" nType="-1"/>
              </Node>
            </Node>
            <Node pos="r" depth="3" NCoef="0" IVar="-1" Cut="4.7233590698242188e+02" cType="1" res="-9.9000000000000000e+01" rms="0.0000000000000000e+00" purity="4.5717903971672058e-01" nType="-1"/>
          </Node>
          <Node pos="r" depth="2" NCoef="0" IVar="-1" Cut="2.5866666793823242e+01" cType="1" res="-9.9000000000000000e+01" rms="0.0000000000000000e+00" purity="2.2603686153888702e-01" nType="-1"/>
        </Node>
      </Node>
    </BinaryTree>
    <BinaryTree type="DecisionTree" boostWeight="1.8948964046336683e-01" itree="28">
      <Node pos="s" depth="0" NCoef="0" IVar="0" Cut="2.9299238281250000e+03" cType="0" res="-9.9000000000000000e+01" rms="0.0000000000000000e+00" purity="5.1180374622344971e-01" nType="0">
        <Node pos="l" depth="1" NCoef="0" IVar="-1" Cut="3.3269995117187500e+03" cType="0" res="-9.9000000000000000e+01" rms="0.0000000000000000e+00" purity="9.9021202325820923e-01" nType="1"/>
        <Node pos="r" depth="1" NCoef="0" IVar="0" Cut="4.5253860473632812e+02" cType="0" res="-9.9000000000000000e+01" rms="0.0000000000000000e+00" purity="4.9582383036613464e-01" nType="0">
          <Node pos="l" depth="2" NCoef="0" IVar="2" Cut="2.1985351562500000e+02" cType="0" res="-9.9000000000000000e+01" rms="0.0000000000000000e+00" purity="5.0664633512496948e-01" nType="0">
            <Node pos="l" depth="3" NCoef="0" IVar="-1" Cut="0.0000000000000000e+00" cType="1" res="-9.9000000000000000e+01" rms="0.0000000000000000e+00" purity="6.5123182535171509e-01" nType="1"/>
            <Node pos="r" depth="3" NCoef="0" IVar="0" Cut="1.1131359863281250e+03" cType="0" res="-9.9000000000000000e+01" rms="0.0000000000000000e+00" purity="4.8956662416458130e-01" nType="0">
              <Node pos="l" depth="4" NCoef="0" IVar="5" Cut="1.1841755676269531e+02" cType="0" res="-9.9000000000000000e+01" rms="0.0000000000000000e+00" purity="5.3559672832489014e-01" nType="0">
                <Node pos="l" depth="5" NCoef="0" IVar="-1" Cut="0.0000000000000000e+00" cType="1" res="-9.9000000000000000e+01" rms="0.0000000000000000e+00" purity="6.0513198375701904e-01" nType="1"/>
                <Node pos="r" depth="5" NCoef="0" IVar="-1" Cut="0.0000000000000000e+00" cType="1" res="-9.9000000000000000e+01" rms="0.0000000000000000e+00" purity="4.8896113038063049e-01" nType="-1"/>
              </Node>
              <Node pos="r" depth="4" NCoef="0" IVar="-1" Cut="2.7046832275390625e+02" cType="1" res="-9.9000000000000000e+01" rms="0.0000000000000000e+00" purity="4.1811758279800415e-01" nType="-1"/>
            </Node>
          </Node>
          <Node pos="r" depth="2" NCoef="0" IVar="-1" Cut="0.0000000000000000e+00" cType="1" res="-9.9000000000000000e+01" rms="0.0000000000000000e+00" purity="0.0000000000000000e+00" nType="-1"/>
        </Node>
      </Node>
    </BinaryTree>
    <BinaryTree type="DecisionTree" boostWeight="2.4683480280118208e-01" itree="29">
      <Node pos="s" depth="0" NCoef="0" IVar="0" Cut="3.0114904785156250e+03" cType="0" res="-9.9000000000000000e+01" rms="0.0000000000000000e+00" purity="5.5774152278900146e-01" nType="0">
        <Node pos="l" depth="1" NCoef="0" IVar="-1" Cut="3.3849318847656250e+03" cType="0" res="-9.9000000000000000e+01" rms="0.0000000000000000e+00" purity="9.8188227415084839e-01" nType="1"/>
        <Node pos="r" depth="1" NCoef="0" IVar="3" Cut="2.5353355407714844e+02" cType="1" res="-9.9000000000000000e+01" rms="0.0000000000000000e+00" purity="5.4655665159225464e-01" nType="0">
          <Node pos="l" depth="2" NCoef="0" IVar="0" Cut="1.4555584716796875e+03" cType="1" res="-9.9000000000000000e+01" rms="0.0000000000000000e+00" purity="5.5949300527572632e-01" nType="0">
            <Node pos="l" depth="3" NCoef="0" IVar="-1" Cut="1.2895228271484375e+03" cType="0" res="-9.9000000000000000e+01" rms="0.0000000000000000e+00" purity="5.9507608413696289e-01" nType="1"/>
            <Node pos="r" depth="3" NCoef="0" IVar="5" Cut="2.5384017944335938e+01" cType="1" res="-9.9000000000000000e+01" rms="0.0000000000000000e+00" purity="4.7752451896667480e-01" nType="0">
              <Node pos="l" depth="4" NCoef="0" IVar="-1" Cut="0.0000000000000000e+00" cType="1" res="-9.9000000000000000e+01" rms="0.0000000000000000e+00" purity="7.4416089057922363e-01" nType="1"/>
              <Node pos="r" depth="4" NCoef="0" IVar="-1" Cut="0.0000000000000000e+00" cType="1" res="-9.9000000000000000e+01" rms="0.0000000000000000e+00" purity="3.9179795980453491e-01" nType="-1"/>
            </Node>
          </Node>
          <Node pos="r" depth="2" NCoef="0" IVar="0" Cut="5.8767462158203125e+02" cType="0" res="-9.9000000000000000e+01" rms="0.0000000000000000e+00" purity="3.9807456731796265e-01" nType="0">
            <Node pos="l" depth="3" NCoef="0" IVar="3" Cut="4.7854180908203125e+02" cType="1" res="-9.9000000000000000e+01" rms="0.0000000000000000e+00" purity="4.5512062311172485e-01" nType="0">
              <Node pos="l" depth="4" NCoef="0" IVar="3" Cut="3.6367276000976562e+02" cType="0" res="-9.9000000000000000e+01" rms="0.0000000000000000e+00" purity="5.0217926502227783e-01" nType="0">
                <Node pos="l" depth="5" NCoef="0" IVar="-1" Cut="0.0000000000000000e+00" cType="1" res="-9.9000000000000000e+01" rms="0.0000000000000000e+00" purity="5.6276202201843262e-01" nType="1"/>
                <Node pos="r" depth="5" NCoef="0" IVar="-1" Cut="0.0000000000000000e+00" cType="1" res="-9.9000000000000000e+01" rms="0.0000000000000000e+00" purity="4.5343515276908875e-01" nType="-1"/>
              </Node>
              <Node pos="r" depth="4" NCoef="0" IVar="-1" Cut="0.0000000000000000e+00" cType="1" res="-9.9000000000000000e+01" rms="0.0000000000000000e+00" purity="2.6744356751441956e-01" nType="-1"/>
            </Node>
            <Node pos="r" depth="3" NCoef="0" IVar="-1" Cut="0.0000000000000000e+00" cType="1" res="-9.9000000000000000e+01" rms="0.0000000000000000e+00" purity="1.2675052881240845e-01" nType="-1"/>
          </Node>
        </Node>
      </Node>
    </BinaryTree>
    <BinaryTree type="DecisionTree" boostWeight="2.6333420335754371e-01" itree="30">
      <Node pos="s" depth="0" NCoef="0" IVar="0" Cut="1.5345140380859375e+03" cType="0" res="-9.9000000000000000e+01" rms="0.0000000000000000e+00" purity="5.1374858617782593e-01" nType="0">
        <Node pos="l" depth="1" NCoef="0" IVar="5" Cut="2.5053659439086914e+01" cType="1" res="-9.9000000000000000e+01" rms="0.0000000000000000e+00" purity="6.2864053249359131e-01" nType="0">
          <Node pos="l" depth="2" NCoef="0" IVar="-1" Cut="4.1688888549804688e+01" cType="0" res="-9.9000000000000000e+01" rms="0.0000000000000000e+00" purity="9.2319262027740479e-01" nType="1"/>
          <Node pos="r" depth="2" NCoef="0" IVar="5" Cut="7.4047554016113281e+01" cType="0" res="-9.9000000000000000e+01" rms="0.0000000000000000e+00" purity="5.4311692714691162e-01" nType="0">
            <Node pos="l" depth="3" NCoef="0" IVar="-1" Cut="0.0000000000000000e+00" cType="1" res="-9.9000000000000000e+01" rms="0.0000000000000000e+00" purity="5.9433615207672119e-01" nType="1"/>
            <Node pos="r" depth="3" NCoef="0" IVar="-1" Cut="0.0000000000000000e+00" cType="1" res="-9.9000000000000000e+01" rms="0.0000000000000000e+00" purity="3.9181652665138245e-01" nType="-1"/>
          </Node>
        </Node>
        <Node pos="r" depth="1" NCoef="0" IVar="2" Cut="3.3823661804199219e+01" cType="0" res="-9.9000000000000000e+01" rms="0.0000000000000000e+00" purity="4.6196085214614868e-01" nType="0">
          <Node pos="l" depth="2" NCoef="0" IVar="1" Cut="4.5666667938232422e+01" cType="0" res="-9.9000000000000000e+01" rms="0.0000000000000000e+00" purity="5.4662317037582397e-01" nType="0">
            <Node pos="l" depth="3" NCoef="0" IVar="-1" Cut="0.0000000000000000e+00" cType="1" res="-9.9000000000000000e+01" rms="0.0000000000000000e+00" purity="7.2525590658187866e-01" nType="1"/>
            <Node pos="r" depth="3" NCoef="0" IVar="3" Cut="1.6907109069824219e+02" cType="0" res="-9.9000000000000000e+01" rms="0.0000000000000000e+00" purity="5.0383710861206055e-01" nType="0">
              <Node pos="l" depth="4" NCoef="0" IVar="-1" Cut="4.2009851074218750e+02" cType="1" res="-9.9000000000000000e+01" rms="0.0000000000000000e+00" purity="6.4710068702697754e-01" nType="1"/>
              <Node pos="r" depth="4" NCoef="0" IVar="2" Cut="4.9984794616699219e+01" cType="1" res="-9.9000000000000000e+01" rms="0.0000000000000000e+00" purity="4.1463878750801086e-01" nType="0">
                <Node pos="l" depth="5" NCoef="0" IVar="-1" Cut="0.0000000000000000e+00" cType="1" res="-9.9000000000000000e+01" rms="0.0000000000000000e+00" purity="5.9522545337677002e-01" nType="1"/>
                <Node pos="r" depth="5" NCoef="0" IVar="-1" Cut="0.0000000000000000e+00" cType="1" res="-9.9000000000000000e+01" rms="0.0000000000000000e+00" purity="3.5734704136848450e-01" nType="-1"/>
              </Node>
            </Node>
          </Node>
          <Node pos="r" depth="2" NCoef="0" IVar="2" Cut="1.0522651672363281e+01" cType="1" res="-9.9000000000000000e+01" rms="0.0000000000000000e+00" purity="4.2981413006782532e-01" nType="0">
            <Node pos="l" depth="3" NCoef="0" IVar="1" Cut="8.2311111450195312e+01" cType="0" res="-9.9000000000000000e+01" rms="0.0000000000000000e+00" purity="4.7263893485069275e-01" nType="0">
              <Node pos="l" depth="4" NCoef="0" IVar="-1" Cut="4.2090497016906738e+00" cType="0" res="-9.9000000000000000e+01" rms="0.0000000000000000e+00" purity="6.6638630628585815e-01" nType="1"/>
              <Node pos="r" depth="4" NCoef="0" IVar="-1" Cut="1.2123693847656250e+03" cType="1" res="-9.9000000000000000e+01" rms="0.0000000000000000e+00" purity="4.5407357811927795e-01" nType="-1"/>
            </Node>
            <Node pos="r" depth="3" NCoef="0" IVar="-1" Cut="6.2508270263671875e+02" cType="0" res="-9.9000000000000000e+01" rms="0.0000000000000000e+00" purity="2.8482738137245178e-01" nType="-1"/>
          </Node>
        </Node>
      </Node>
    </BinaryTree>
    <BinaryTree type="DecisionTree" boostWeight="2.4649885652380854e-01" itree="31">
      <Node pos="s" depth="0" NCoef="0" IVar="0" Cut="4.4791915893554688e+02" cType="0" res="-9.9000000000000000e+01" rms="0.0000000000000000e+00" purity="5.3387171030044556e-01" nType="0">
        <Node pos="l" depth="1" NCoef="0" IVar="0" Cut="1.6077548828125000e+03" cType="0" res="-9.9000000000000000e+01" rms="0.0000000000000000e+00" purity="5.4332631826400757e-01" nType="0">
          <Node pos="l" depth="2" NCoef="0" IVar="-1" Cut="5.2587745666503906e+01" cType="1" res="-9.9000000000000000e+01" rms="0.0000000000000000e+00" purity="6.5766012668609619e-01" nType="1"/>
          <Node pos="r" depth="2" NCoef="0" IVar="0" Cut="1.4015130615234375e+03" cType="1" res="-9.9000000000000000e+01" rms="0.0000000000000000e+00" purity="5.0341165065765381e-01" nType="0">
            <Node pos="l" depth="3" NCoef="0" IVar="0" Cut="6.1744702148437500e+02" cType="0" res="-9.9000000000000000e+01" rms="0.0000000000000000e+00" purity="5.4834842681884766e-01" nType="0">
              <Node pos="l" depth="4" NCoef="0" IVar="-1" Cut="6.5229956054687500e+02" cType="1" res="-9.9000000000000000e+01" rms="0.0000000000000000e+00" purity="5.6390285491943359e-01" nType="1"/>
              <Node pos="r" depth="4" NCoef="0" IVar="0" Cut="5.1573138427734375e+02" cType="1" res="-9.9000000000000000e+01" rms="0.0000000000000000e+00" purity="3.9892345666885376e-01" nType="0">
                <Node pos="l" depth="5" NCoef="0" IVar="-1" Cut="0.0000000000000000e+00" cType="1" res="-9.9000000000000000e+01" rms="0.0000000000000000e+00" purity="5.8108872175216675e-01" nType="1"/>
                <Node pos="r" depth="5" NCoef="0" IVar="-1" Cut="0.0000000000000000e+00" cType="1" res="-9.9000000000000000e+01" rms="0.0000000000000000e+00" purity="2.9785028100013733e-01" nType="-1"/>
              </Node>
            </Node>
            <Node pos="r" depth="3" NCoef="0" IVar="-1" Cut="0.0000000000000000e+00" cType="1" res="-9.9000000000000000e+01" rms="0.0000000000000000e+00" purity="2.6033100485801697e-01" nType="-1"/>
          </Node>
        </Node>
        <Node pos="r" depth="1" NCoef="0" IVar="-1" Cut="0.0000000000000000e+00" cType="1" res="-9.9000000000000000e+01" rms="0.0000000000000000e+00" purity="0.0000000000000000e+00" nType="-1"/>
      </Node>
    </BinaryTree>
    <BinaryTree type="DecisionTree" boostWeight="1.2891726889506516e-01" itree="32">
      <Node pos="s" depth="0" NCoef="0" IVar="0" Cut="3.1670812988281250e+03" cType="0" res="-9.9000000000000000e+01" rms="0.0000000000000000e+00" purity="4.8070782423019409e-01" nType="0">
        <Node pos="l" depth="1" NCoef="0" IVar="-1" Cut="0.0000000000000000e+00" cType="1" res="-9.9000000000000000e+01" rms="0.0000000000000000e+00" purity="1.0000000000000000e+00" nType="1"/>
        <Node pos="r" depth="1" NCoef="0" IVar="0" Cut="6.0501977539062500e+02" cType="0" res="-9.9000000000000000e+01" rms="0.0000000000000000e+00" purity="4.6991524100303650e-01" nType="0">
          <Node pos="l" depth="2" NCoef="0" IVar="0" Cut="2.0283854980468750e+03" cType="0" res="-9.9000000000000000e+01" rms="0.0000000000000000e+00" purity="4.8592895269393921e-01" nType="0">
            <Node pos="l" depth="3" NCoef="0" IVar="-1" Cut="7.3599998474121094e+01" cType="0" res="-9.9000000000000000e+01" rms="0.0000000000000000e+00" purity="6.2290394306182861e-01" nType="1"/>
            <Node pos="r" depth="3" NCoef="0" IVar="-1" Cut="1.4271968994140625e+03" cType="1" res="-9.9000000000000000e+01" rms="0.0000000000000000e+00" purity="4.6910512447357178e-01" nType="-1"/>
          </Node>
          <Node pos="r" depth="2" NCoef="0" IVar="-1" Cut="3.3809837341308594e+01" cType="0" res="-9.9000000000000000e+01" rms="0.0000000000000000e+00" purity="2.6268944144248962e-01" nType="-1"/>
        </Node>
      </Node>
    </BinaryTree>
    <BinaryTree type="DecisionTree" boostWeight="1.5433777833230430e-01" itree="33">
      <Node pos="s" depth="0" NCoef="0" IVar="0" Cut="2.9320302734375000e+03" cType="0" res="-9.9000000000000000e+01" rms="0.0000000000000000e+00" purity="4.8612120747566223e-01" nType="0">
        <Node pos="l" depth="1" NCoef="0" IVar="-1" Cut="0.0000000000000000e+00" cType="1" res="-9.9000000000000000e+01" rms="0.0000000000000000e+00" purity="9.9081939458847046e-01" nType="1"/>
        <Node pos="r" depth="1" NCoef="0" IVar="2" Cut="3.5500268554687500e+02" cType="0" res="-9.9000000000000000e+01" rms="0.0000000000000000e+00" purity="4.7232887148857117e-01" nType="0">
          <Node pos="l" depth="2" NCoef="0" IVar="-1" Cut="1.6786604309082031e+02" cType="0" res="-9.9000000000000000e+01" rms="0.0000000000000000e+00" purity="6.8502593040466309e-01" nType="1"/>
          <Node pos="r" depth="2" NCoef="0" IVar="0" Cut="1.0596335449218750e+03" cType="0" res="-9.9000000000000000e+01" rms="0.0000000000000000e+00" purity="4.5912384986877441e-01" nType="0">
            <Node pos="l" depth="3" NCoef="0" IVar="1" Cut="7.7666664123535156e+01" cType="1" res="-9.9000000000000000e+01" rms="0.0000000000000000e+00" purity="4.9451488256454468e-01" nType="0">
              <Node pos="l" depth="4" NCoef="0" IVar="1" Cut="4.9622222900390625e+01" cType="0" res="-9.9000000000000000e+01" rms="0.0000000000000000e+00" purity="5.0888293981552124e-01" nType="0">
                <Node pos="l" depth="5" NCoef="0" IVar="-1" Cut="0.0000000000000000e+00" cType="1" res="-9.9000000000000000e+01" rms="0.0000000000000000e+00" purity="5.8485519886016846e-01" nType="1"/>
                <Node pos="r" depth="5" NCoef="0" IVar="-1" Cut="0.0000000000000000e+00" cType="1" res="-9.9000000000000000e+01" rms="0.0000000000000000e+00" purity="4.9161803722381592e-01" nType="-1"/>
              </Node>
