<?xml version="1.0"?>
<MethodSetup Method="DL::DNNfinal">
  <GeneralInfo>
    <Info name="TMVA Release" value="4.2.1 [262657]"/>
    <Info name="ROOT Release" value="6.32/12 [401420]"/>
    <Info name="Creator" value="srkg5254"/>
    <Info name="Date" value="Thu Jul 10 13:44:16 2025"/>
    <Info name="Host" value="Linux c9157808971f 4.18.0-553.27.1.el8_10.x86_64 #1 SMP Tue Nov 5 04:50:16 EST 2024 x86_64 x86_64 x86_64 GNU/Linux"/>
    <Info name="Dir" value="/home/srkg5254/proj_niser/proj_files/BDTmodelV2"/>
    <Info name="Training events" value="1669973"/>
    <Info name="TrainingTime" value="6.30638931e+02"/>
    <Info name="AnalysisType" value="Classification"/>
  </GeneralInfo>
  <Options>
    <Option name="V" modified="No">False</Option>
    <Option name="VerbosityLevel" modified="No">Default</Option>
    <Option name="VarTransform" modified="No">None</Option>
    <Option name="H" modified="No">False</Option>
    <Option name="CreateMVAPdfs" modified="No">False</Option>
    <Option name="IgnoreNegWeightsInTraining" modified="No">False</Option>
    <Option name="InputLayout" modified="No">0|0|0</Option>
    <Option name="BatchLayout" modified="No">0|0|0</Option>
    <Option name="Layout" modified="Yes">DENSE|64|RELU,DENSE|32|RELU,DENSE|16|RELU,DENSE|1|SIGMOID</Option>
    <Option name="ErrorStrategy" modified="Yes">CROSSENTROPY</Option>
    <Option name="WeightInitialization" modified="Yes">XAVIER</Option>
    <Option name="RandomSeed" modified="No">0</Option>
    <Option name="ValidationSize" modified="No">20%</Option>
    <Option name="Architecture" modified="Yes">CPU</Option>
    <Option name="TrainingStrategy" modified="Yes">[LearningRate=1e-3,Optimizer=ADAM,Momentum=0.9,Repetitions=1,ConvergenceSteps=20,BatchSize=256,TestRepetitions=1,MaxEpochs=50,</Option>
  </Options>
  <Variables NVar="6">
    <Variable VarIndex="0" Expression="ADC_mean" Label="ADC_mean" Title="ADC_mean" Unit="" Internal="ADC_mean" Type="F" Min="1.80352936e+02" Max="3.71164893e+03"/>
    <Variable VarIndex="1" Expression="nhits_min" Label="nhits_min" Title="nhits_min" Unit="" Internal="nhits_min" Type="F" Min="0.00000000e+00" Max="7.13000000e+02"/>
    <Variable VarIndex="2" Expression="entry_dist" Label="entry_dist" Title="entry_dist" Unit="" Internal="entry_dist" Type="F" Min="2.49812456e-06" Max="7.62003174e+02"/>
    <Variable VarIndex="3" Expression="exit_dist" Label="exit_dist" Title="exit_dist" Unit="" Internal="exit_dist" Type="F" Min="7.64472206e-05" Max="7.61906433e+02"/>
    <Variable VarIndex="4" Expression="docasqrx_max" Label="docasqrx_max" Title="docasqrx_max" Unit="" Internal="docasqrx_max" Type="F" Min="0.00000000e+00" Max="1.14471038e+06"/>
    <Variable VarIndex="5" Expression="docasqry_max" Label="docasqry_max" Title="docasqry_max" Unit="" Internal="docasqry_max" Type="F" Min="0.00000000e+00" Max="5.64393750e+05"/>
  </Variables>
  <Spectators NSpec="0"/>
  <Classes NClass="2">
    <Class Name="Signal" Index="0"/>
    <Class Name="Background" Index="1"/>
  </Classes>
  <Transformations NTransformations="0"/>
  <MVAPdfs/>
  <Weights NetDepth="4" InputDepth="1" InputHeight="1" InputWidth="6" BatchSize="1" BatchDepth="1" BatchHeight="256" BatchWidth="6" LossFunction="C" Initialization="X" Regularization="0" OutputFunction="S" WeightDecay="0.0000000000000000e+00">
    <DenseLayer Width="64" ActivationFunction="1">
      <Weights Rows="64" Columns="6">
        1.630585e-01  -1.144534e-01  -5.973042e-03  -1.111488e-01  -3.588906e-01  -1.813167e-02  5.756612e-01  -2.733989e-01  -1.891008e-01  -2.799438e-01  4.361452e-01  1.741556e-01  -9.321040e-03  -3.078844e-01  2.498086e-01  -1.555708e-01  -2.529742e-01  -1.981582e-01  1.360989e-01  2.377979e-01  1.536052e-01  3.410238e-01  1.440403e-01  1.236655e-01  -1.381248e-01  -2.099209e-01  4.006404e-02  -1.083622e-01  -4.458749e-02  -1.825072e-01  -1.214754e-01  -3.395798e-01  2.313490e-02  4.667132e-01  2.897665e-01  -1.311982e-01  1.004201e-02  -5.516911e-01  -5.474477e-01  4.146518e-02  -1.334133e-01  -2.494705e-01  1.990396e-01  3.934070e-01  -2.429370e-01  -3.285906e-01  -1.266225e-01  -1.913305e-01  -1.616492e-01  -1.102477e-01  -1.892899e-02  1.797267e-01  -5.021642e-02  5.559387e-02  -2.078964e-01  8.946914e-02  -2.578200e-01  1.494392e-01  -1.157597e-01  4.662296e-01  2.730979e-01  1.917946e-01  1.236048e-01  -1.647757e-01  6.408342e-02  7.699594e-02  -1.543605e-01  5.263178e-01  3.421650e-01  -1.372540e-01  -1.290323e-01  3.264526e-01  -2.160688e-02  4.520723e-01  9.668313e-02  -1.389904e-01  -1.613782e-01  -3.689383e-01  -5.528957e-02  1.106047e-01  -2.382270e-01  1.412149e-01  -2.564262e-01  1.763291e-01  -1.662622e-02  -2.803342e-01  4.599000e-01  2.509433e-01  4.703444e-01  5.085756e-01  -1.785937e-01  8.615277e-02  -3.769129e-01  -1.922587e-01  -5.211139e-01  3.575288e-02  1.058519e-01  -4.678581e-01  1.890574e-01  -3.165125e-01  -2.739724e-01  3.772074e-01  -3.593161e-02  1.110773e-01  -3.580090e-02  -1.087141e-01  -1.224689e-01  6.047783e-02  -3.603908e-01  3.800859e-01  -3.895124e-02  1.296794e-01  -1.153813e-02  -4.634391e-01  8.876574e-02  -3.835111e-01  3.767423e-01  -2.623565e-01  -1.865647e-01  -2.866597e-01  4.631821e-02  -1.397219e-01  -6.896152e-02  -2.036989e-01  5.831521e-01  -2.119837e-01  -3.502004e-01  -1.853161e-02  -7.724260e-02  -1.855513e-01  -7.502041e-02  1.468179e-01  -1.202388e-01  -3.308025e-01  1.710776e-01  7.750083e-03  -1.275636e-01  3.775139e-01  3.204199e-02  -4.434734e-01  -2.370366e-01  -3.022699e-01  -3.604212e-01  4.315993e-01  5.681497e-02  2.579542e-01  4.125998e-01  -2.607798e-01  1.218640e-01  -2.688647e-01  -8.718461e-02  -6.288032e-02  -1.515328e-01  3.370803e-01  -4.666659e-01  1.146102e-01  -3.622909e-01  -2.980878e-01  -4.493315e-02  -4.862833e-02  -8.531719e-02  5.099431e-01  9.757467e-02  3.653390e-01  -8.932837e-02  2.177098e-01  -2.766581e-01  1.844420e-01  6.637976e-02  -6.081980e-02  -4.636906e-01  8.173817e-02  2.333305e-01  5.555127e-03  5.057743e-01  -2.744919e-01  -2.215045e-01  -3.668112e-02  5.050638e-01  4.998259e-02  5.739872e-01  1.134068e-01  -3.285348e-03  1.049165e-01  5.591382e-01  1.469563e-01  1.929440e-01  2.550759e-01  2.009019e-01  1.315406e-01  -2.663909e-01  -2.296326e-02  -9.296264e-02  -3.324063e-01  -3.484368e-02  1.596414e-01  -2.714876e-02  -6.956195e-02  -4.515761e-01  -1.757267e-01  2.062014e-01  1.736173e-01  1.494772e-01  2.594984e-01  -2.855095e-01  -3.498950e-02  -6.554779e-03  5.326646e-02  -4.011032e-01  2.729678e-01  2.023288e-01  -1.500615e-01  -3.010456e-01  2.744222e-01  3.165556e-01  -4.893805e-04  5.200263e-02  3.027135e-01  2.391335e-01  1.608321e-01  -1.186228e-01  4.755948e-01  -1.705096e-01  3.901575e-01  -2.019860e-01  -1.633636e-01  1.798612e-01  -2.915968e-01  1.015133e-01  1.258339e-01  9.991350e-02  2.654961e-01  2.873354e-02  4.577064e-01  9.076843e-02  1.395861e-01  -3.384038e-01  -2.408585e-01  1.534539e-01  9.642258e-02  1.135734e-01  -2.565817e-01  3.392952e-01  -7.387661e-02  5.275423e-02  5.168993e-02  -4.682036e-01  1.818992e-01  1.475851e-01  -2.540176e-01  -3.016971e-01  -3.175581e-01  -2.211490e-01  1.154281e-01  3.351725e-01  2.743064e-01  1.291116e-01  -1.301296e-01  -2.869866e-01  2.873841e-01  -8.415397e-03  5.983779e-01  -4.722618e-02  2.538109e-01  3.535071e-01  -4.354624e-01  3.638696e-02  1.408752e-02  -9.600943e-02  8.186146e-02  2.324812e-01  -1.231616e-01  -1.006675e-01  -1.809015e-01  -3.109729e-01  -1.150134e-01  2.993765e-01  -3.787862e-01  1.825031e-01  -7.457988e-02  -2.924498e-02  -3.955929e-01  -3.545851e-01  -4.989523e-02  1.207212e-01  -4.770630e-02  -9.738270e-02  1.992531e-02  5.033646e-01  -3.058044e-01  -4.386728e-01  4.662325e-01  3.979699e-02  2.423050e-01  -2.937669e-01  -1.971303e-01  -5.708701e-02  -8.678127e-03  2.828624e-02  -1.443936e-01  -1.664779e-01  -2.259340e-01  -1.126890e-01  -3.006567e-01  -2.211078e-01  -6.461129e-03  1.311303e-01  -1.890343e-01  -1.082361e-01  1.732113e-01  2.211910e-01  2.835639e-01  -8.500060e-02  1.346929e-02  -4.234238e-01  2.291936e-01  8.309995e-02  -4.268423e-01  3.159158e-01  2.338986e-02  2.049036e-01  -1.307394e-02  -3.712617e-01  -2.521579e-01  4.635770e-02  -3.138137e-01  3.407519e-01  1.031216e-01  -9.372954e-02  -2.800791e-02  -3.274521e-01  -1.810153e-01  3.986559e-01  -1.665092e-01  -1.846842e-01  -4.779754e-02  -5.423831e-02  -3.249806e-01  -1.200860e-01  5.209792e-02  -2.192734e-01  3.121706e-02  -1.597411e-01  -2.992432e-01  8.676423e-02  -1.557618e-01  2.720917e-01  -5.288820e-01  -8.350845e-02  3.190183e-01  -2.643977e-02  2.024095e-01  1.939883e-01  2.695886e-01  -4.401614e-01  7.450223e-02  2.098539e-01  -7.910681e-02  -1.694236e-01  -2.967697e-01  -2.841502e-01  -8.661108e-02  -5.789962e-01  2.217260e-01  -2.064823e-02  -3.086289e-01  -2.013104e-01  1.737329e-01  -1.395657e-01  -2.133403e-01  3.412682e-01  -1.575138e-01  2.769858e-01  -1.971774e-01  1.730585e-02  5.316268e-02  -6.094993e-02  2.376760e-01  1.371509e-01  -2.567021e-01  -1.739360e-01  5.197471e-03  -5.912461e-02  1.741229e-01  
      </Weights>
      <Biases Rows="64" Columns="1">
        -7.186054e-01  7.162798e-01  -7.549209e-02  -7.065260e-01  0.000000e+00  -1.720408e-02  -2.038474e-01  -7.195826e-01  -5.111254e-10  1.287314e-03  7.178299e-01  1.197382e-02  1.552144e-01  -1.202313e-04  -4.620750e-01  0.000000e+00  7.513027e-01  -2.534291e-04  0.000000e+00  -7.116421e-01  7.517856e-01  3.112867e-04  1.722766e-02  -2.977489e-01  7.046725e-01  2.895236e-03  -1.745104e-02  7.216638e-01  7.301644e-01  -7.191256e-01  7.133933e-01  6.909456e-01  -7.198421e-15  1.360227e-02  -4.159616e-04  -7.188235e-01  -7.182875e-01  6.864196e-22  -7.182373e-01  7.186461e-01  7.120132e-01  0.000000e+00  1.685982e-02  2.099430e-02  -5.825275e-01  7.188038e-01  -7.128091e-01  0.000000e+00  7.187260e-01  0.000000e+00  0.000000e+00  7.186702e-01  9.923972e-05  -5.901244e-01  7.150587e-01  -1.559226e-02  1.586527e-23  9.621241e-05  4.271638e-02  -2.335671e-05  -1.157095e-21  -6.448461e-03  -7.162650e-01  -7.185194e-01  
      </Biases>
    </DenseLayer>
    <DenseLayer Width="32" ActivationFunction="1">
      <Weights Rows="32" Columns="64">
        3.112146e-02  -1.109923e-02  1.987326e-03  2.028564e-01  -2.296285e-02  3.338591e-02  -1.168336e-01  2.658613e-01  1.107084e-01  -2.555514e-01  2.064220e-02  2.218572e-01  -2.962264e-01  -2.380659e-01  -2.476385e-01  2.773095e-02  -4.205569e-01  2.899697e-01  -1.269467e-01  -2.218700e-01  4.141344e-01  1.886830e-01  3.749373e-01  -1.671972e-01  3.410178e-01  3.146515e-02  -3.494008e-02  3.203728e-01  -3.814494e-01  3.232527e-01  2.881825e-02  -3.233372e-01  1.549434e-01  -5.405213e-02  3.004089e-02  -1.158380e-01  2.619962e-02  -2.215342e-01  7.583323e-02  4.264527e-01  -3.506230e-01  -2.462407e-01  -2.473828e-02  -7.644339e-02  -2.898316e-01  2.717848e-01  1.168621e-01  6.490566e-02  5.006110e-03  6.515690e-02  -1.138720e-01  -5.594530e-02  -1.489284e-01  -1.087359e-01  1.931662e-01  1.193285e-01  -5.486748e-02  -1.386174e-01  2.024035e-01  1.957772e-01  2.403766e-01  -1.787918e-01  2.601241e-01  2.099922e-02  -1.745799e-01  -9.840712e-02  -1.167683e-01  -2.586725e-02  -2.044127e-01  -3.892889e-02  -4.454640e-01  1.882261e-01  -4.539976e-01  -7.311653e-02  -1.103719e-01  -2.172949e-01  1.254523e-01  -1.999782e-01  3.393782e-01  6.266476e-02  -1.147912e-01  -1.574459e-02  7.274008e-02  3.248712e-01  -2.919552e-01  -2.500978e-01  -4.867126e-01  -1.243660e-01  -2.622367e-01  -3.110238e-01  1.740124e-01  2.720603e-01  4.543116e-01  6.753293e-02  2.573059e-01  -6.156595e-02  -2.682738e-01  -2.188462e-01  1.984762e-01  3.782049e-01  1.274470e-01  -1.080187e-01  -4.505963e-01  -7.746837e-02  -4.718129e-02  5.184798e-02  -6.232309e-02  3.011653e-01  -4.912717e-02  1.325047e-01  1.142047e-01  -3.172363e-02  1.696808e-01  2.388164e-01  -1.825213e-01  -1.447018e-01  -8.364742e-02  1.390859e-01  -9.813944e-02  3.566650e-01  -4.093849e-01  -6.033241e-02  6.585702e-02  1.541441e-02  -2.014252e-02  2.194791e-01  9.568337e-02  -2.730996e-02  -8.523246e-02  -3.777822e-01  2.736441e-01  -1.900844e-01  1.804527e-01  9.395516e-02  -4.337335e-01  -1.531291e-01  4.349264e-02  9.781969e-02  -2.626688e-01  1.295603e-01  9.102457e-02  8.946325e-02  9.292463e-02  -1.524937e-03  1.542620e-01  1.347277e-01  2.417853e-01  1.993923e-01  3.709361e-01  -1.810812e-01  3.081668e-01  2.358232e-01  -1.788116e-01  -3.562213e-01  1.779125e-01  -3.644854e-01  -1.921052e-01  -3.856631e-01  8.632184e-02  -1.446622e-01  3.471307e-01  1.372041e-02  2.726684e-01  -4.179449e-01  -1.460489e-01  4.676831e-02  2.430782e-01  8.659924e-03  -1.701393e-01  1.607923e-01  -2.143206e-01  3.963725e-02  1.790991e-01  1.047618e-01  2.348074e-01  -6.783334e-03  -2.170848e-01  -2.153984e-01  -9.875553e-03  -2.210526e-01  1.059174e-01  -3.245814e-01  2.593992e-01  -1.456818e-01  2.075348e-01  -1.001305e-02  8.509271e-02  -1.899895e-01  -2.326040e-01  9.123998e-03  -4.684180e-01  2.646693e-01  2.698272e-02  -2.908849e-01  2.853678e-02  1.349188e-01  4.059420e-01  -4.109642e-01  -3.320494e-02  -2.978432e-01  1.805947e-01  -9.890127e-02  1.729913e-02  -3.273577e-01  1.199003e-01  -2.087453e-01  1.073498e-01  -8.020161e-02  2.266272e-01  1.732681e-01  1.982910e-01  2.959302e-01  3.077555e-01  -6.127229e-02  -7.140802e-02  3.935455e-01  -2.050478e-01  -1.065435e-01  -5.980655e-02  -1.116034e-01  -2.960313e-02  -4.240897e-01  1.078207e-01  -3.365963e-01  4.368181e-01  -3.632729e-01  -1.566837e-01  -3.212126e-01  -3.841833e-01  1.223570e-01  -3.250353e-01  -1.167091e-02  2.686385e-01  1.222913e-01  -1.982792e-02  3.453089e-01  -3.047539e-02  -1.357770e-01  -8.329032e-02  2.208493e-02  1.469587e-01  7.007124e-02  1.098347e-01  3.261204e-01  -6.897873e-02  5.567291e-02  1.159493e-05  -3.579505e-02  -2.219546e-01  7.064135e-02  3.828685e-02  -1.552523e-01  5.892785e-02  2.323909e-01  -4.440490e-02  -6.239076e-02  3.974370e-01  1.785787e-01  -2.570506e-01  -1.437042e-02  -3.644609e-01  3.019404e-01  9.594811e-02  3.403148e-02  -1.632937e-01  8.408637e-02  -3.684992e-02  5.999232e-02  -5.366293e-02  -7.661341e-03  4.113237e-02  -7.713647e-02  -1.530395e-01  1.965437e-01  -2.562463e-04  -1.286980e-01  4.081102e-01  2.270113e-01  -5.140341e-02  -8.763456e-02  -1.505723e-01  -3.667056e-02  -2.221452e-01  4.570195e-03  -4.081775e-01  -1.039306e-01  -2.953777e-01  1.572314e-02  -1.880378e-01  2.322791e-02  8.590133e-02  9.126889e-03  3.477998e-01  1.095408e-01  2.986824e-01  1.259882e-01  -1.890920e-02  -8.517709e-03  1.897435e-02  3.351889e-01  -1.701543e-01  -1.337103e-01  -1.454145e-01  -2.441349e-01  3.470337e-01  2.722599e-01  3.699577e-01  2.717339e-01  -2.622993e-02  -2.787433e-01  1.239423e-01  1.490756e-01  -9.900287e-02  2.270482e-01  -1.697623e-02  -1.426320e-01  2.398714e-01  2.123249e-01  3.300275e-01  3.072141e-01  3.526821e-01  -1.159439e-01  3.508981e-01  -4.540370e-02  -4.046734e-01  1.352256e-01  2.944137e-01  1.241241e-01  2.110456e-01  9.106541e-02  -4.634451e-02  -1.323059e-01  5.896930e-02  -1.213372e-01  4.316610e-01  8.676425e-02  -1.011951e-01  -1.210029e-01  9.153950e-02  1.287130e-02  3.979049e-01  -8.128306e-02  -4.614936e-01  -3.856651e-02  7.651132e-02  1.278503e-01  -3.092538e-01  2.128146e-02  -1.435491e-01  -1.364157e-01  -2.709128e-02  -9.122296e-02  -2.332245e-01  1.227512e-01  -5.276645e-02  -1.369025e-01  2.035114e-02  -1.033953e-01  2.012688e-01  2.716744e-01  1.559089e-01  -3.779297e-02  2.935477e-01  -3.404727e-01  -1.000342e-01  2.612545e-01  1.992987e-02  -8.012367e-02  1.901272e-01  4.283223e-01  1.671673e-02  -5.708715e-02  -2.655083e-01  3.335422e-02  -6.802549e-02  2.416327e-01  3.628302e-01  4.685093e-01  -3.744237e-01  1.811837e-01  -2.577984e-01  -1.136556e-01  5.558580e-02  2.298436e-01  -3.172860e-01  4.586714e-01  -7.730891e-02  -1.736386e-01  9.076557e-02  1.321547e-01  2.463594e-01  -2.017198e-01  -1.571469e-01  -2.134719e-01  1.022549e-01  1.810237e-01  -3.128172e-01  -3.162331e-01  -1.398468e-01  7.707363e-02  6.318752e-02  -6.047828e-02  -1.051000e-01  2.948981e-01  1.613573e-01  -1.361209e-02  -5.164752e-01  5.803664e-03  2.667883e-01  -6.884241e-02  1.775736e-02  -8.523624e-02  4.411901e-02  2.735595e-01  4.985518e-01  -2.582004e-01  -1.192021e-01  5.962059e-02  -1.972947e-01  1.440993e-01  2.637682e-01  -1.703052e-02  2.290772e-01  3.974980e-01  1.217069e-01  2.905033e-01  1.152673e-01  -1.574003e-01  5.136906e-02  3.814173e-01  -2.123031e-01  2.340625e-01  -1.973023e-01  -7.914156e-02  2.647992e-01  -3.352092e-01  -2.220171e-01  2.422700e-01  -8.533113e-02  -1.691309e-01  -4.874772e-01  2.087313e-01  -2.863531e-01  -1.813629e-01  -3.845955e-02  -2.853658e-02  1.781982e-01  -7.746853e-02  1.884682e-01  4.057219e-01  1.747152e-01  -8.487717e-02  -4.166165e-01  2.434960e-01  -3.385405e-01  -3.392641e-01  -3.907343e-02  -3.797494e-01  3.015196e-01  -4.966512e-02  -6.749789e-02  -9.319965e-02  -2.060903e-01  3.136612e-01  -8.075120e-02  1.569395e-01  1.805446e-01  -2.705788e-01  -2.900915e-01  9.321745e-02  7.744768e-02  2.374979e-01  -3.059454e-01  -1.230687e-01  4.423755e-02  -1.913453e-01  -1.531468e-01  -1.281580e-01  6.175369e-02  -2.125271e-01  -2.059806e-02  -1.514343e-01  2.075214e-01  -2.509244e-01  -1.016611e-01  -9.813308e-02  -7.899357e-02  -7.241831e-02  -4.356886e-02  -8.132888e-02  2.751130e-01  1.125124e-01  -1.884490e-02  3.881089e-01  2.335246e-01  -7.408012e-02  2.080357e-01  -3.047385e-01  -8.543754e-02  1.181848e-01  -3.626106e-01  -1.426847e-01  -1.152753e-01  9.361495e-03  -1.204479e-01  1.957179e-01  2.519801e-01  6.807301e-02  -2.411250e-01  -3.177969e-01  2.328683e-01  -1.572264e-01  2.674982e-02  -1.094586e-01  9.666663e-02  -8.736639e-02  -1.896033e-01  2.485426e-01  1.544491e-01  8.647213e-02  -3.591265e-01  -1.456973e-01  -3.710216e-02  4.444595e-02  -3.671952e-02  3.666805e-01  5.015185e-03  -1.765609e-01  -1.694028e-01  3.198753e-02  -4.546804e-01  5.588774e-02  1.253746e-01  1.538837e-01  7.899467e-02  9.567807e-02  -1.516140e-01  1.078216e-01  1.776574e-01  3.446359e-01  -1.109186e-01  -1.565268e-01  3.748288e-01  -2.450963e-01  3.812718e-02  2.606193e-01  1.861064e-01  1.896327e-01  -2.614598e-01  -3.020190e-01  -9.916406e-02  -9.319633e-02  -2.116156e-01  -2.717790e-01  -2.341870e-01  -1.609842e-01  4.283611e-02  9.325768e-03  7.228773e-02  -1.479738e-01  -7.899379e-02  1.047533e-01  1.296002e-01  -4.173346e-01  4.193672e-01  2.508675e-01  1.017082e-01  4.165276e-02  -1.937742e-01  4.690020e-01  4.842865e-02  1.000453e-01  2.320510e-01  -1.030238e-01  2.548290e-01  -2.880029e-03  3.484009e-01  1.032470e-03  -2.207218e-02  1.546870e-01  -7.082704e-02  3.682549e-01  -1.967142e-01  1.195578e-01  4.793147e-02  -1.488898e-01  -1.905866e-01  -8.374637e-02  -3.296893e-01  1.351348e-01  1.345551e-01  1.569921e-01  -6.005415e-03  -3.291935e-02  -1.596822e-01  -2.264223e-03  4.214899e-01  1.003697e-01  9.174775e-02  -3.861976e-02  -8.361319e-02  -5.647447e-02  -1.021667e-01  -6.238081e-02  1.658583e-01  -4.339213e-02  4.579373e-01  1.999796e-01  -1.493293e-01  3.273676e-01  1.624014e-02  -3.442460e-01  -9.678462e-02  2.203763e-01  -1.068725e-01  -1.603771e-01  -1.080218e-01  -8.580031e-02  -4.560675e-02  1.888017e-01  -8.946624e-02  3.133358e-01  3.999978e-02  3.369880e-02  -1.467946e-01  -5.154059e-02  3.618072e-02  -5.941207e-02  1.495333e-01  2.115550e-01  -1.228585e-01  3.618250e-01  1.350948e-01  -3.328691e-02  -2.260277e-01  3.794645e-01  -4.704300e-02  -1.490927e-01  4.062293e-01  -3.396034e-01  -2.040417e-01  -1.303075e-01  3.896073e-01  -1.681505e-01  3.663543e-01  -3.619682e-01  1.181908e-01  -9.775935e-03  2.988748e-01  2.644430e-01  2.209472e-01  1.643233e-01  -3.864470e-01  1.373192e-01  7.617144e-02  4.086001e-01  2.347327e-02  6.260295e-02  -3.722837e-01  -9.788759e-03  9.543487e-02  -9.725048e-02  1.939385e-01  1.232060e-01  -4.629099e-01  2.079792e-01  1.535738e-01  -7.583512e-02  -1.587713e-01  1.652526e-02  -2.307021e-01  -6.706043e-02  -4.259593e-01  -1.038118e-01  -1.593557e-01  -3.066445e-01  -1.825719e-01  -2.596093e-02  8.700415e-02  6.809810e-02  2.316559e-02  2.934447e-01  -9.859813e-02  2.406356e-02  3.242527e-01  2.962753e-01  -8.644643e-02  -6.142626e-02  -1.185701e-01  -8.818354e-02  5.929962e-02  -7.266182e-03  -5.772417e-02  1.861071e-02  -2.086783e-01  1.474332e-01  1.774219e-01  -3.304183e-01  2.037203e-01  -3.449455e-02  2.012671e-01  2.185364e-01  -9.351528e-02  -2.687641e-02  3.230620e-01  -1.299797e-02  1.561245e-01  -1.544768e-01  9.957215e-02  -2.629099e-01  3.761397e-01  1.437382e-01  1.285647e-02  1.066653e-01  1.239242e-01  -4.840753e-02  4.209120e-02  2.714679e-01  6.077432e-03  5.218651e-02  2.499539e-01  -2.022834e-02  -3.186420e-02  2.290213e-02  -7.150694e-02  -1.238836e-01  -3.035168e-01  -2.137511e-01  3.660992e-01  -1.592397e-01  -1.002432e-01  7.285392e-02  3.516258e-01  -2.857666e-01  1.344359e-01  -1.233749e-01  5.978779e-02  -3.203967e-01  1.985056e-01  -1.331107e-03  2.570414e-01  -2.390224e-01  -1.940443e-01  -1.985133e-01  -9.345260e-02  3.493911e-01  -9.609978e-02  -3.407697e-01  1.399959e-01  -3.662879e-01  1.281315e-01  -1.190520e-01  1.830166e-01  -2.099811e-01  -3.322780e-01  -1.696070e-02  -3.861238e-01  1.868421e-01  3.810251e-01  1.102954e-01  -3.380009e-01  2.106601e-01  1.904009e-01  1.738063e-01  -2.122838e-01  -1.061740e-01  1.703731e-02  6.792989e-02  3.006670e-01  8.722731e-02  1.481652e-01  7.357749e-02  2.981039e-01  7.845476e-02  -2.856367e-02  2.190446e-01  -2.204908e-01  1.708284e-01  -2.972620e-01  1.904114e-01  2.223883e-01  8.015484e-02  -1.139154e-01  -1.926675e-01  -8.641846e-02  1.121455e-01  -2.652117e-01  -1.875197e-02  1.110650e-01  2.775124e-01  -3.165766e-02  -1.615258e-01  1.544848e-01  -2.862740e-01  1.418783e-01  4.943155e-02  -3.709488e-02  -8.568481e-02  1.862699e-01  -8.945377e-02  -1.041750e-01  4.680285e-01  2.401504e-01  -4.384379e-01  1.743758e-01  -1.678544e-01  -1.832380e-01  -4.047304e-01  -1.450331e-02  2.581303e-01  -3.597152e-01  2.222092e-01  -1.822141e-01  -3.192003e-01  8.239403e-02  -4.594120e-01  -1.557722e-01  -5.283720e-02  -8.242268e-03  9.715113e-02  4.622200e-01  -8.177818e-02  -1.022696e-01  -3.361481e-02  6.568198e-02  -6.928580e-02  -3.667502e-01  -3.877412e-01  -1.089544e-01  -5.150517e-02  7.205522e-02  1.053733e-01  3.294226e-01  -8.943137e-02  -1.383961e-01  -1.712915e-01  2.736257e-01  -3.411369e-01  -8.006803e-02  -1.887049e-01  -9.965221e-02  2.373795e-02  -7.942925e-02  4.025021e-01  -9.115642e-02  4.092465e-01  -4.917172e-01  -1.624541e-01  2.636093e-01  -1.598790e-01  -3.895616e-01  2.802145e-01  1.044083e-01  -3.564617e-01  1.255733e-01  -9.128764e-02  -1.553426e-01  -1.944915e-01  -8.618777e-02  -1.859887e-01  2.511759e-01  1.991533e-01  6.084054e-02  -2.446584e-01  -3.131897e-02  1.917340e-01  -1.111726e-01  -2.839732e-01  2.752594e-01  -3.741036e-01  2.594647e-01  -1.976243e-02  6.789415e-02  3.859422e-01  -2.807633e-01  -1.105453e-01  -4.095784e-01  -2.270477e-01  -1.101467e-01  1.392076e-02  -3.998828e-01  -1.399317e-01  2.208972e-01  2.280851e-01  -2.756067e-01  -1.746787e-01  -4.427305e-01  -3.323796e-01  5.739607e-02  -2.774295e-01  8.786421e-02  -1.428530e-01  1.449549e-01  2.276248e-03  1.614508e-01  -7.723271e-02  -3.639785e-01  3.903687e-01  2.005133e-01  1.312865e-01  -1.270853e-01  3.415138e-01  -2.179667e-02  -2.231773e-01  -1.731652e-01  -1.594113e-01  9.644674e-02  1.053610e-01  6.939435e-02  -2.034471e-01  -1.864183e-01  5.407381e-02  1.525267e-01  3.033449e-01  -3.300236e-01  3.749528e-01  5.249736e-02  -1.597123e-01  2.718637e-02  -2.641677e-01  2.044666e-01  -6.163996e-02  9.228086e-02  -1.790796e-01  -2.607407e-01  1.100963e-01  -3.400625e-01  -1.735456e-01  -2.496574e-01  4.824407e-01  7.243665e-02  -7.262295e-02  -1.364959e-01  2.289813e-02  1.181046e-01  2.004161e-01  -1.891931e-01  -7.112852e-02  3.531894e-02  3.764252e-01  -7.913800e-02  -1.226760e-02  -1.229316e-01  1.541415e-01  1.737380e-01  -2.794846e-01  6.821606e-02  -2.367056e-01  -3.959978e-02  -2.707348e-01  -1.223080e-01  1.478126e-01  2.486332e-01  -3.965265e-01  -1.145875e-01  -1.842526e-01  1.643704e-01  -1.066582e-01  -3.667077e-02  2.068298e-01  6.396388e-02  -3.847603e-01  -3.657464e-02  -5.512629e-02  8.461788e-02  -4.479439e-01  -2.253035e-01  -8.077513e-02  -4.045130e-01  1.998908e-01  1.599903e-01  -7.723302e-02  1.449508e-01  -1.639748e-02  4.710416e-01  2.706227e-01  6.977548e-02  1.926175e-02  1.123712e-01  2.885919e-01  -1.180652e-01  -2.739832e-01  -4.697952e-02  2.831431e-01  1.198107e-01  -3.613568e-01  2.669545e-01  -2.352184e-01  -1.052885e-01  1.352859e-01  7.603388e-03  -1.742829e-01  -4.938087e-02  -3.421637e-01  -1.527746e-01  4.938105e-01  -2.461015e-02  -1.094198e-02  2.931968e-01  -1.043431e-01  4.153492e-01  -1.768061e-01  -3.911529e-01  1.960655e-01  2.934702e-02  2.001087e-01  4.793529e-01  4.031142e-01  1.533044e-01  2.128903e-01  -9.209258e-02  1.425419e-02  1.229155e-01  -4.635186e-01  -2.791944e-01  2.102021e-01  1.701190e-01  -3.133443e-01  -2.265681e-01  -1.401005e-01  1.529942e-01  -3.464673e-02  9.340145e-02  4.034437e-01  -1.091681e-02  1.250027e-01  2.011509e-01  -4.112398e-02  -3.017880e-02  -8.774046e-02  -4.971581e-01  -1.503143e-01  8.811292e-02  3.955252e-01  -1.532712e-01  -2.181264e-01  4.772926e-01  3.820660e-01  2.641981e-01  9.085117e-02  2.690938e-01  -1.648391e-01  8.237144e-02  -1.122162e-01  5.616399e-02  -1.589035e-01  1.506427e-01  5.625382e-02  7.117414e-02  3.503000e-01  1.216235e-01  -9.953187e-02  -3.659756e-01  -9.052494e-02  -4.251101e-01  -2.709213e-02  -7.691020e-02  -1.816832e-01  3.615852e-01  -3.356269e-01  1.502470e-01  -9.897726e-02  1.850363e-01  2.438986e-01  1.074122e-01  1.731250e-01  1.618022e-01  8.540233e-02  -3.854608e-02  1.345212e-01  1.643199e-01  -4.145575e-01  -1.091101e-01  4.469746e-03  1.565150e-01  -3.935074e-01  -2.260503e-01  -6.484524e-03  5.272010e-02  2.022440e-01  -4.047979e-02  1.595490e-01  1.702373e-01  -8.481852e-02  1.905457e-01  -3.341569e-01  1.743384e-02  2.194997e-02  -2.203517e-01  -1.584308e-01  -2.794833e-01  3.765409e-02  2.919771e-02  1.484848e-01  3.666053e-02  2.872026e-01  -2.935824e-01  2.420154e-01  1.717752e-01  -1.700855e-01  -2.628651e-01  -2.150439e-01  -4.496690e-02  5.289974e-02  -1.400920e-01  -1.375007e-01  4.187780e-01  -5.392021e-02  6.800528e-03  -4.441544e-01  -6.932767e-02  -6.806690e-02  6.762756e-02  2.296162e-01  4.345025e-02  -2.269736e-01  1.314997e-01  -4.415645e-01  2.299877e-01  -2.072486e-01  -2.402328e-01  2.685757e-02  -1.187205e-01  8.984130e-02  4.098751e-01  1.782879e-01  2.473702e-01  3.734697e-01  -3.823638e-01  3.307605e-01  -2.498519e-01  1.880190e-01  -1.383030e-01  -3.143450e-01  -4.451180e-02  1.486319e-01  -2.201673e-01  -5.320499e-02  2.123848e-01  -1.805464e-01  2.703330e-01  -2.583027e-01  2.025095e-01  -1.606807e-01  -2.153073e-01  7.376188e-02  -8.694372e-02  -1.402473e-01  -1.294256e-01  1.707731e-01  -2.589071e-01  1.456064e-01  -2.256820e-01  -3.144952e-02  1.060593e-01  1.239747e-01  -1.660117e-01  -1.853429e-01  -9.197729e-02  9.889328e-02  2.674257e-02  2.046061e-01  -2.515244e-01  3.323497e-02  1.023917e-01  3.531002e-01  -7.285427e-02  -3.910214e-01  -1.191828e-01  2.219869e-01  -1.617735e-02  2.880495e-01  -8.081191e-03  -2.812209e-01  -8.577820e-02  -4.326148e-03  -1.552089e-02  -1.565267e-01  -1.628812e-02  4.056955e-01  -1.068411e-01  -3.168809e-01  -1.067722e-01  -4.352372e-01  -6.922571e-03  1.790317e-01  -1.267558e-01  -3.259353e-01  1.202288e-01  -6.917346e-02  2.640358e-02  2.558148e-01  -8.573165e-02  -1.281675e-01  -5.772940e-02  8.967773e-02  1.373029e-01  3.625945e-01  4.923920e-03  5.902075e-02  -1.404925e-01  -1.307067e-01  1.779118e-01  4.373799e-02  4.699933e-02  2.264685e-01  1.146773e-01  -9.147646e-02  -4.513236e-01  1.120968e-01  2.517418e-01  2.959903e-01  2.280846e-01  6.546886e-03  3.425884e-01  -4.584440e-01  9.322150e-02  -1.221366e-01  3.323350e-01  -2.324463e-01  -1.500992e-01  -8.638927e-02  -1.300324e-01  -5.128502e-02  4.451072e-01  -1.530332e-01  -3.709178e-01  2.269391e-01  -2.177816e-01  1.465198e-01  2.304816e-01  -1.638899e-01  2.584359e-01  2.070081e-03  -2.134603e-01  1.842190e-01  4.251813e-01  5.884748e-02  -2.505555e-01  2.184298e-01  -1.275293e-01  2.268061e-01  6.087510e-02  -1.965083e-01  -7.380502e-02  -5.077494e-02  1.758378e-01  1.475658e-01  9.829728e-02  -1.899097e-01  9.199767e-02  1.824509e-01  -1.078021e-01  -2.148415e-01  3.697491e-01  -2.521431e-01  -9.412619e-02  3.673181e-01  -3.668475e-01  4.016022e-01  -1.118256e-01  5.596881e-02  3.649702e-01  2.100998e-01  -2.797083e-01  -3.309538e-01  4.598175e-01  -1.410107e-01  2.455045e-02  -1.438118e-02  -2.493030e-01  4.954286e-02  9.072155e-03  -4.129487e-02  -2.784278e-01  -3.771323e-01  7.742212e-02  3.611241e-01  -3.146943e-01  5.254724e-02  2.865926e-01  4.474402e-02  1.512871e-02  -1.006010e-01  2.004390e-01  -5.840489e-02  -6.474666e-02  -1.756976e-01  -1.775488e-01  -1.013118e-01  -1.972319e-01  -3.095043e-01  1.477963e-01  7.497855e-02  -2.186211e-01  -1.429321e-01  4.181961e-01  -1.310946e-01  1.802085e-01  1.355971e-01  -7.772832e-02  6.889026e-02  4.262701e-02  -1.265811e-01  -3.119079e-01  3.353824e-01  -3.466081e-01  -1.310198e-01  -3.194435e-01  2.981826e-01  -4.972776e-02  -1.421553e-01  -1.450189e-01  2.417410e-02  1.356200e-01  2.188151e-01  2.203496e-01  -1.743319e-01  -2.792701e-02  4.126615e-02  -1.488252e-01  2.681523e-01  -4.136260e-01  1.543796e-01  -4.702083e-01  4.318752e-01  -4.146005e-01  2.974998e-02  1.890499e-01  9.458345e-02  -1.573327e-01  1.288652e-01  4.655012e-01  -9.259455e-02  -1.946026e-02  -1.569379e-01  2.140640e-01  1.405304e-01  1.706448e-01  2.920272e-01  -5.705179e-02  1.124504e-01  2.860172e-01  3.979578e-01  -2.344344e-01  8.094905e-02  -1.326783e-01  3.444523e-02  -1.974244e-01  -3.110245e-01  -2.407683e-01  2.849197e-02  -4.868693e-01  -2.579863e-01  3.265862e-01  -1.565784e-01  2.571858e-01  -2.428112e-01  -9.605757e-02  -1.059998e-01  -7.639087e-02  -2.442064e-01  -4.426786e-01  1.020155e-01  2.317725e-01  1.412375e-03  1.442398e-01  2.409402e-01  -1.117311e-01  4.489942e-02  7.054488e-02  1.350075e-01  2.540424e-01  -8.656601e-03  -1.078125e-01  -2.948285e-01  -2.231261e-01  -2.863995e-01  1.832934e-01  6.296111e-02  1.362873e-01  -2.428405e-01  2.063244e-02  -2.298090e-01  1.026857e-01  -1.025734e-03  3.229041e-01  1.595790e-01  1.570342e-02  -1.715059e-01  -2.733574e-01  -2.958938e-01  1.272337e-01  -1.490732e-01  3.599088e-01  -2.089131e-02  -2.582331e-02  4.887766e-02  -1.321655e-01  -5.608395e-02  4.980757e-02  -1.875723e-01  2.157296e-01  -3.166602e-01  -4.032237e-01  -3.323889e-01  6.279823e-02  5.876094e-02  3.035592e-01  1.207223e-01  1.155982e-01  1.202509e-01  -5.640846e-02  2.012726e-01  3.268574e-01  2.764956e-01  4.317265e-01  -1.269912e-01  -8.040602e-03  -1.320089e-01  -4.007253e-02  -2.046137e-03  -1.704214e-01  -1.136786e-01  -2.377269e-01  4.861765e-01  -2.056695e-01  3.329154e-01  -4.898910e-01  2.568557e-02  4.457030e-01  2.840390e-02  3.137143e-01  1.284974e-01  1.383406e-01  -4.760935e-01  -3.331821e-01  1.045940e-01  4.704600e-01  -7.414891e-02  2.802399e-01  2.676043e-02  -1.127177e-01  1.848505e-01  -5.023681e-05  2.320170e-01  4.012989e-01  -2.459066e-01  -1.913056e-01  2.289073e-01  -3.982895e-02  1.972513e-01  -1.067173e-01  2.337553e-01  3.391072e-01  4.960768e-01  -2.760731e-01  -2.443811e-01  -1.214079e-01  9.294311e-02  7.260640e-02  4.933002e-01  -2.218051e-01  -1.318828e-01  9.877819e-02  -9.316313e-03  -6.672154e-02  1.462222e-01  3.610924e-01  2.702266e-01  1.706852e-02  2.017994e-01  -5.656694e-02  7.305362e-02  -9.287631e-02  -2.351136e-01  -1.962730e-01  3.075995e-02  -8.144263e-02  -1.458018e-01  -4.251638e-01  -9.562184e-02  2.141647e-01  -3.841958e-01  -2.542441e-02  -1.478365e-01  1.599211e-01  1.422828e-01  2.140275e-01  -1.916040e-01  -3.177216e-01  -4.386873e-01  -3.821363e-01  -9.190114e-02  -9.053591e-02  -1.574976e-01  2.697279e-01  1.126397e-01  -3.365139e-02  -1.741887e-01  2.022960e-01  -2.226210e-01  -1.113762e-01  -4.026909e-01  2.468359e-01  -1.738594e-01  2.547637e-01  1.050639e-01  -9.598992e-02  7.058105e-02  -1.656898e-01  1.681953e-01  1.215320e-01  -1.687576e-01  1.938972e-01  3.871227e-01  3.021120e-01  -1.587833e-01  -5.161745e-02  -4.541498e-01  3.704640e-01  5.142394e-02  2.245076e-01  6.231327e-03  3.339288e-01  1.867037e-01  -8.393360e-02  -2.976603e-01  -3.197724e-01  2.242616e-01  -8.217080e-03  -1.094106e-01  -4.751843e-01  6.333164e-02  2.183580e-01  2.383808e-01  -2.945873e-01  8.695203e-02  2.400309e-01  8.412856e-02  2.169854e-01  1.144592e-01  -3.146004e-02  1.884459e-01  -4.866247e-01  5.105282e-01  1.739024e-01  2.476404e-01  -3.408548e-02  -1.800510e-01  -3.414664e-01  -4.428328e-01  2.890768e-01  -2.981543e-01  -2.830652e-01  -4.649936e-02  3.476931e-01  1.101619e-01  -1.782195e-01  -2.503021e-01  3.101371e-01  -2.904380e-01  -4.356799e-02  1.499808e-01  -3.100103e-02  -8.912344e-02  1.466514e-01  1.823723e-02  -1.464156e-01  5.542386e-02  -2.439052e-01  -3.909278e-01  -3.614776e-01  3.976616e-01  2.028296e-01  3.292898e-02  -6.306107e-02  1.866707e-01  1.814398e-01  3.338239e-01  -2.628272e-01  1.059852e-01  3.266762e-01  5.443438e-02  6.726134e-02  1.622555e-01  -1.266054e-02  1.059325e-01  -3.278558e-01  -1.799629e-01  2.471750e-01  -3.348535e-01  1.045027e-02  2.331807e-01  3.987350e-01  -3.459343e-01  9.071262e-02  2.118111e-01  -4.678513e-02  -3.104565e-01  1.193829e-01  -5.963812e-02  -3.029200e-01  1.114385e-01  -4.620613e-02  2.058548e-01  -3.253315e-01  -4.702685e-01  -2.037010e-01  -3.370400e-02  4.134671e-02  -1.075737e-03  3.624911e-01  5.915315e-02  1.367674e-01  1.110978e-01  -2.730359e-02  -6.852169e-02  -1.309365e-02  -2.135858e-01  3.361608e-02  5.504136e-02  8.495388e-02  -1.303146e-01  1.430071e-01  -1.562769e-01  -3.820732e-02  4.019721e-01  1.287389e-01  1.227501e-01  1.741578e-01  -1.848954e-01  4.047479e-02  -9.079027e-03  1.018629e-02  -5.746080e-02  -1.192271e-01  1.757351e-02  2.509554e-01  -3.168792e-01  3.985466e-01  1.597681e-01  7.314092e-02  2.327186e-01  2.209985e-01  3.526365e-01  -2.303154e-01  1.406346e-01  3.172926e-01  -2.155125e-01  1.242158e-01  -3.419907e-03  2.548902e-01  3.174839e-01  1.255934e-01  2.286284e-01  -8.516735e-02  1.586999e-01  -1.935748e-01  2.357817e-02  7.056820e-02  -3.585205e-01  -4.678131e-01  7.447292e-02  2.739064e-01  6.926981e-02  1.978724e-01  -1.039937e-01  1.787071e-01  -1.886705e-01  1.678701e-01  3.801924e-01  4.452778e-01  1.430863e-01  1.907985e-01  -2.966637e-01  2.521386e-01  4.406023e-01  -2.298480e-01  -1.361973e-01  -3.970760e-01  -1.952731e-02  4.725526e-02  1.675417e-01  2.380385e-02  -1.426745e-01  -8.713211e-02  2.330270e-01  -7.534072e-02  3.628723e-01  8.707727e-02  -1.257882e-01  -1.239861e-01  3.717548e-01  -4.256955e-01  1.410106e-02  2.740146e-01  -4.333868e-03  -4.733869e-01  1.118929e-01  -1.020545e-02  1.401474e-01  1.591191e-02  -3.559468e-01  3.314765e-01  -2.219962e-01  -2.423456e-01  -1.252240e-01  9.121986e-02  1.612891e-01  1.862196e-01  -2.121782e-03  3.878259e-01  -4.047140e-01  1.913698e-01  -2.794495e-01  -8.021693e-02  -1.557134e-01  1.817164e-01  2.246025e-01  2.844020e-02  -8.891036e-02  -1.840319e-01  -5.248996e-03  -5.008199e-02  -2.658969e-01  -1.566956e-01  1.071198e-01  -4.905024e-02  -1.441003e-01  -1.356269e-01  -1.086956e-01  -2.111562e-01  3.438974e-02  -2.541682e-01  -1.824732e-01  -4.648684e-02  2.986040e-01  2.114897e-01  -5.299718e-02  2.895321e-01  -1.045142e-01  -2.741297e-01  1.169349e-01  -1.245581e-02  -7.350605e-02  1.457253e-02  3.639573e-01  4.020995e-01  2.057147e-01  7.614473e-02  -1.474106e-01  2.203766e-01  -4.895891e-01  3.401002e-01  3.186350e-01  2.881766e-01  9.363329e-02  1.544946e-01  1.535415e-01  3.591304e-01  -3.959349e-02  1.383213e-03  -2.973036e-01  1.998629e-01  1.119806e-01  -2.430915e-01  2.092730e-01  -1.043451e-02  -2.600217e-01  -3.145757e-01  2.763578e-01  -1.710802e-03  4.109448e-01  2.157798e-01  -4.284519e-02  -6.700048e-02  2.261427e-01  4.106066e-01  1.985668e-01  1.232243e-01  3.309523e-02  4.165865e-01  3.121347e-01  4.142698e-01  3.220832e-02  6.385535e-02  2.515457e-01  1.710643e-02  3.418161e-02  4.143561e-02  -4.631364e-01  -1.869882e-01  1.719176e-01  1.540818e-01  -4.864051e-01  2.050271e-01  -1.989962e-01  -3.543938e-02  1.586658e-02  1.842959e-01  5.557430e-02  7.769992e-02  -6.570482e-03  5.152398e-01  -1.304958e-01  -3.710969e-01  -7.725130e-03  -8.832325e-02  -8.290377e-02  1.284008e-01  2.552499e-01  2.954779e-01  -1.450534e-01  1.362427e-01  -2.018260e-01  1.664182e-01  -2.110284e-01  -2.892237e-01  -1.133937e-01  2.528458e-01  -1.463149e-01  -6.408161e-02  1.457365e-01  1.884954e-02  3.729103e-02  7.475330e-02  1.241258e-01  -4.051749e-02  2.912675e-01  -1.154048e-01  2.567047e-02  1.509417e-01  -3.177074e-01  4.021833e-02  2.308391e-01  2.954879e-01  3.475015e-01  1.637093e-01  -7.053018e-02  1.866284e-02  7.100848e-02  -3.389021e-01  3.830197e-01  -1.262458e-01  -6.589690e-02  -6.928195e-02  2.105877e-01  1.330870e-01  -9.345709e-02  2.126493e-01  -3.132986e-01  3.115944e-01  2.492037e-01  1.599108e-01  -1.331826e-01  -3.281534e-01  1.981148e-02  6.459679e-02  1.996495e-01  2.810666e-02  1.146913e-01  -3.774827e-02  1.313168e-01  -4.784115e-02  -1.698267e-02  2.656883e-02  1.001353e-01  2.023027e-01  -6.380057e-02  -1.315708e-01  1.248044e-02  -1.552387e-01  6.624680e-02  -9.661318e-02  -2.547980e-01  2.970571e-02  1.275452e-01  2.859977e-02  8.800191e-02  -4.562340e-02  2.677877e-01  4.281159e-01  -1.808509e-01  -2.922148e-01  -8.406326e-02  2.391801e-01  1.555374e-01  -3.322097e-02  4.330745e-02  1.367026e-01  9.947735e-03  1.717016e-01  -3.747906e-01  -1.858094e-01  -2.200557e-01  6.178609e-02  -3.199947e-01  1.512720e-01  -1.492024e-01  -1.964145e-01  1.696779e-02  -4.749553e-01  2.404993e-01  2.006606e-01  1.021464e-01  4.100932e-01  -5.390444e-02  -6.062493e-02  -4.855652e-01  -6.969070e-03  2.385119e-01  -2.784243e-01  -3.330083e-02  8.480366e-02  -2.133096e-01  -3.829068e-01  -3.340502e-01  1.132958e-01  -4.995998e-01  7.385675e-02  3.757089e-02  -1.139261e-01  7.431086e-02  -1.564039e-01  2.686958e-01  3.156984e-01  -2.568347e-01  -1.890049e-01  -1.162491e-01  4.399732e-01  8.964852e-02  3.104565e-01  -3.337257e-02  1.219544e-02  -3.983676e-02  -4.986452e-02  -3.930117e-01  -2.650562e-01  1.311400e-02  -1.782171e-01  6.799745e-02  -3.220773e-02  -1.138950e-01  2.117397e-01  -1.258232e-01  1.629661e-01  2.244878e-01  1.674408e-01  1.638523e-01  2.918909e-01  6.672104e-02  2.412661e-01  1.086307e-01  -1.767391e-01  2.928415e-02  -5.653909e-02  -2.870211e-01  -8.363076e-02  2.240608e-01  3.815908e-01  -1.119563e-01  2.880716e-01  -1.865841e-01  -1.946803e-01  -6.647669e-02  -6.561972e-02  -3.343602e-01  1.670143e-02  -1.837188e-01  -2.743284e-01  2.141806e-01  -4.211880e-02  2.375991e-01  3.023453e-01  -3.970703e-01  1.612569e-01  -2.349801e-01  3.874192e-02  4.558170e-01  -2.536659e-01  2.466932e-01  -4.817969e-02  -1.292057e-01  -1.194789e-02  2.711857e-01  2.241064e-01  -3.065989e-01  -9.417403e-02  -4.159467e-02  3.945090e-02  -1.903385e-01  -1.461662e-01  -1.615415e-01  -3.115073e-01  -1.810977e-01  1.923312e-01  -3.462513e-01  -7.030796e-02  -2.349053e-01  -3.311673e-01  1.865860e-01  -1.403223e-01  -8.432044e-02  1.106052e-01  9.530818e-02  2.397531e-01  2.530156e-01  2.096591e-02  -1.345528e-01  2.435142e-01  -2.227848e-01  -4.423102e-01  -2.329460e-01  -2.883598e-01  8.060189e-02  -1.145050e-01  -1.274241e-01  9.422207e-02  -3.028714e-01  7.179528e-02  1.936229e-02  -1.401723e-01  2.661419e-01  2.291652e-01  4.003096e-01  -1.943467e-01  -2.168356e-02  -2.171576e-01  7.753925e-02  1.317909e-01  5.884395e-02  1.729525e-01  2.465722e-01  -1.979023e-03  -6.879131e-02  1.161010e-01  -1.188366e-01  -2.285224e-01  2.843460e-01  8.250852e-02  2.340817e-01  -2.765508e-01  1.542730e-01  -1.627426e-01  -5.556676e-02  4.677656e-01  -1.439387e-01  
      </Weights>
      <Biases Rows="32" Columns="1">
        -7.154958e-01  -7.097606e-01  0.000000e+00  0.000000e+00  -7.002792e-01  -7.121200e-01  -7.126658e-01  7.195131e-01  -7.006405e-01  -7.193367e-01  -5.182188e-03  -2.787329e-01  -5.674453e-03  -9.756290e-04  1.252442e-03  -7.158870e-01  -1.031153e-02  -2.978279e-04  -9.655022e-03  -3.075833e-03  7.145427e-01  6.297778e-01  -7.189628e-01  7.149311e-01  7.197819e-01  7.197784e-01  -7.192444e-01  7.193034e-01  7.178969e-01  4.420830e-04  7.162688e-01  0.000000e+00  
      </Biases>
    </DenseLayer>
    <DenseLayer Width="16" ActivationFunction="1">
      <Weights Rows="16" Columns="32">
        -1.036441e-01  6.202908e-03  2.429217e-01  4.646911e-02  1.721735e-02  -6.865113e-01  -1.206319e-01  2.067362e-01  -3.661864e-01  -3.977728e-01  -5.053380e-01  4.416821e-01  3.308645e-01  5.879880e-01  -1.884185e-01  2.137616e-01  5.936515e-01  2.660982e-01  1.249081e-01  -2.972628e-01  -1.404101e-01  -9.927543e-02  -4.751625e-01  -3.454944e-01  -3.607349e-01  -2.096491e-01  3.631180e-01  -5.755309e-01  -7.040074e-02  -3.944281e-01  -3.891546e-01  -5.705730e-01  1.967318e-01  5.806344e-01  4.329938e-01  1.383030e-01  2.431869e-01  -1.233608e-01  1.341893e-01  -4.680450e-01  6.541242e-01  3.207392e-01  6.741596e-01  -2.306565e-01  -4.120198e-01  -3.776403e-02  -6.169236e-03  -1.831424e-01  3.693661e-02  4.128797e-01  -2.106540e-01  2.703162e-01  1.596906e-01  -1.132236e-01  1.692495e-01  -4.868751e-01  -1.908654e-01  -2.509339e-01  4.950500e-01  -3.090082e-01  -2.416558e-01  -3.739839e-01  -4.607210e-02  2.034303e-01  5.409449e-01  -3.581620e-01  -4.487127e-01  7.447859e-02  -7.828866e-02  1.501067e-01  -4.179240e-01  3.252591e-01  6.771445e-03  2.473986e-01  -3.230686e-01  4.521994e-01  3.747552e-01  -4.573388e-03  9.127429e-02  2.599201e-01  2.351681e-01  1.693317e-01  1.999141e-01  -5.059825e-01  -1.701417e-01  -6.660912e-01  -1.658495e-01  3.545724e-01  4.191473e-01  -3.117418e-01  -5.452392e-01  1.752422e-01  -6.720080e-02  6.226049e-01  -6.568399e-01  -1.104642e-01  6.477705e-01  2.416012e-01  -2.410954e-01  1.253280e-01  2.670696e-01  -2.229465e-01  1.309864e-01  -4.501436e-01  6.745272e-01  4.662117e-02  -5.269262e-03  2.107193e-01  -1.523837e-01  -2.254427e-01  -4.243648e-01  -6.097914e-01  2.021009e-01  2.279750e-02  1.930281e-01  -4.735311e-01  1.887073e-01  -2.918493e-01  2.403772e-01  -1.243308e-01  -6.539353e-02  9.365870e-02  -2.233205e-01  -2.138761e-01  -1.195506e-01  2.662219e-01  -2.843509e-01  1.205341e-01  3.957382e-01  2.033262e-01  -1.021820e-01  3.436621e-01  -1.720220e-01  -1.191963e-01  4.559886e-02  6.071000e-01  3.968205e-01  -2.393939e-01  -4.215534e-01  -2.300674e-01  -8.398005e-02  8.366054e-02  1.923661e-01  1.385494e-02  -5.866442e-02  -1.143917e-01  6.209633e-01  -1.408153e-01  2.364216e-01  4.658229e-01  5.438657e-02  -1.972210e-01  5.571846e-01  4.298071e-01  3.487225e-01  2.135831e-01  3.647831e-01  -4.730672e-02  -2.674290e-02  -3.796122e-01  -5.382345e-02  3.798674e-01  2.566262e-01  -3.021872e-01  9.912471e-02  3.007600e-01  -4.118214e-01  5.558841e-01  3.687976e-02  -3.374536e-01  -6.182357e-02  -2.317278e-01  -1.202270e-01  2.489371e-01  -2.503130e-01  3.024491e-02  -4.613410e-01  -2.171580e-01  1.486090e-01  6.453410e-01  -1.135216e-01  5.932447e-01  5.585718e-02  -2.021034e-02  -1.337671e-01  -5.920288e-01  -2.065779e-01  -2.952963e-01  -2.963408e-01  4.976711e-03  9.910634e-03  4.925362e-01  -6.741487e-01  -4.829595e-01  -5.104007e-02  4.316355e-01  4.560786e-01  3.309261e-01  4.387527e-01  4.778860e-01  -2.577534e-01  3.957854e-01  -2.031555e-01  -4.834081e-01  4.367158e-01  5.189114e-01  5.490081e-02  -4.923802e-01  -3.117068e-01  1.169220e-01  2.049898e-01  4.304810e-01  -3.317850e-01  5.046447e-01  1.812507e-01  -2.056509e-01  -1.148979e-01  -1.558871e-01  -1.555226e-01  1.619804e-01  2.778264e-01  2.530348e-01  -5.500050e-02  -5.783211e-02  6.806090e-02  -5.189053e-02  1.193784e-01  -4.551497e-01  1.228921e-01  -1.120110e-01  2.009540e-01  3.672773e-01  3.477608e-02  -2.452104e-01  -2.890045e-01  -2.359104e-01  6.400759e-01  8.684917e-02  6.280653e-02  2.142643e-01  9.091411e-02  -2.322423e-01  1.357138e-01  3.533715e-01  -2.859716e-02  -4.929069e-02  2.391901e-03  1.900333e-01  -1.914465e-01  6.547779e-02  1.467376e-01  -7.452497e-02  -4.635217e-01  -2.598545e-02  -1.513339e-01  -4.277482e-01  -3.029052e-01  3.132324e-01  -7.998344e-02  7.310578e-02  -2.391650e-01  3.219041e-01  -2.790194e-01  3.221030e-01  7.131895e-01  -3.106974e-01  1.545339e-02  6.304908e-01  -1.997761e-01  8.455057e-02  6.441505e-02  1.880553e-01  2.447309e-01  -5.073312e-02  6.671498e-01  3.677597e-01  -6.037801e-01  -3.090708e-01  -2.157476e-01  -2.806776e-01  1.564697e-01  1.573376e-01  -2.324498e-01  6.521307e-01  6.657354e-01  -8.457019e-02  1.146587e-02  -3.727482e-01  3.285020e-01  -2.367221e-01  2.469253e-01  -4.867204e-02  3.102325e-01  5.676485e-01  -1.875478e-01  1.369890e-01  -1.649678e-01  4.516249e-01  -4.040867e-01  -1.627691e-01  -3.660932e-02  1.276554e-02  7.626680e-02  -4.348571e-01  1.538614e-01  6.672838e-02  2.597288e-01  -1.193613e-01  -2.190067e-02  -2.115705e-01  6.447035e-01  -1.437813e-02  -3.271550e-01  -9.147848e-02  3.734901e-01  -2.696761e-01  -3.927917e-01  -6.913525e-01  -1.831050e-01  -3.621218e-01  2.042803e-01  2.061267e-01  -6.472320e-02  3.820940e-01  -7.177663e-02  4.375632e-01  5.251790e-01  -2.698525e-01  -7.366126e-02  -9.485056e-02  4.842745e-01  1.334018e-01  2.613855e-01  -5.361192e-04  1.415233e-01  6.546940e-01  -7.662810e-02  4.921004e-01  5.263088e-01  7.835450e-03  -3.718483e-01  1.419251e-01  2.214089e-01  -1.774846e-02  -3.042007e-01  -3.306544e-01  4.177947e-01  -4.185470e-01  3.768164e-01  1.135730e-01  -5.491306e-01  -4.051687e-01  -5.602204e-01  2.450795e-01  4.102080e-01  -1.109923e-01  9.160259e-02  -4.156677e-01  -1.946126e-01  -2.857166e-01  1.107532e-01  -3.796250e-02  -1.934422e-01  -6.302332e-03  -2.415604e-01  -1.008191e-01  5.469742e-01  -9.731036e-02  3.169649e-01  -2.686442e-01  -9.968989e-02  1.354637e-01  3.589990e-01  4.740833e-01  -6.153268e-01  5.153502e-01  3.519074e-01  -2.931700e-01  -1.977018e-01  3.043047e-01  -2.132250e-01  3.161186e-01  5.400299e-01  -3.307470e-01  -2.379048e-01  2.532860e-01  1.597781e-01  5.249878e-01  -2.261766e-02  -9.727042e-02  5.462137e-01  -3.815770e-01  3.087278e-01  9.040479e-02  4.008919e-01  6.179401e-01  1.499674e-01  2.617621e-01  1.536693e-02  2.560330e-02  -4.255325e-01  4.267150e-01  2.059168e-01  -3.039120e-01  -4.967074e-01  -3.776478e-02  6.000299e-01  6.531379e-03  -1.253868e-02  9.020426e-02  -1.664493e-02  7.598310e-03  -5.163365e-02  -5.917933e-01  -5.626069e-01  -4.423918e-01  6.650352e-02  -1.481334e-01  7.654343e-02  3.137210e-02  4.541607e-01  2.157624e-03  3.642652e-01  7.776268e-02  1.725721e-01  5.950428e-01  -2.092919e-01  -2.851779e-01  6.588621e-02  -1.248465e-01  1.834510e-01  -4.492200e-01  -1.626102e-01  -2.461234e-01  -3.832296e-01  1.040510e-01  2.562539e-01  2.077105e-01  -4.257648e-01  -4.296109e-01  7.116088e-01  2.468460e-01  4.475094e-01  -4.281816e-01  -1.672513e-01  6.816162e-01  2.673471e-01  -3.982820e-01  -9.048033e-02  -1.593055e-01  3.634160e-01  9.740241e-02  3.364010e-01  -3.227666e-01  -1.840157e-01  3.102106e-01  -2.973095e-01  -1.699350e-01  3.121433e-01  -4.523130e-01  -1.659214e-02  -1.945265e-01  1.004614e-01  1.207215e-01  1.113440e-01  -2.514381e-01  2.381109e-01  1.059663e-01  2.750436e-01  4.598112e-01  1.705320e-01  2.870008e-01  1.268817e-01  -8.371186e-03  -3.037410e-01  3.915824e-01  -2.574548e-01  1.064613e-01  -2.541192e-01  -6.941530e-02  1.345140e-01  2.841338e-03  7.572743e-02  5.250070e-01  1.976825e-01  1.730369e-01  3.904116e-01  -6.347077e-02  -3.709662e-01  -1.381647e-02  -5.864828e-01  9.303568e-02  -1.821313e-01  3.239080e-01  2.891918e-01  -3.936086e-01  -5.703878e-02  -3.277546e-02  -2.623669e-01  -5.120863e-02  8.216147e-02  -3.229831e-01  -7.425494e-02  4.632842e-01  2.168140e-01  4.426215e-01  -6.801003e-01  -2.304793e-01  1.718210e-01  -1.352410e-01  -2.836135e-01  -2.338215e-02  
      </Weights>
      <Biases Rows="16" Columns="1">
        0.000000e+00  -7.145177e-01  5.037804e-22  -7.135696e-01  7.170834e-01  0.000000e+00  -7.021254e-01  -6.926191e-01  7.214440e-01  -7.162694e-01  -7.186806e-01  -1.633800e-02  -6.917583e-01  7.160019e-01  1.823345e-02  7.197720e-01  
      </Biases>
    </DenseLayer>
    <DenseLayer Width="1" ActivationFunction="2">
      <Weights Rows="1" Columns="16">
        -6.156622e-01  1.883058e-01  -6.709719e-01  3.973497e-01  -3.263982e-01  4.341175e-01  5.401372e-02  1.816968e-01  -2.434003e-01  2.812561e-01  7.098359e-01  3.727642e-01  3.226376e-02  -2.547762e-01  -9.959099e-01  -5.884786e-01  
      </Weights>
      <Biases Rows="1" Columns="1">
        -7.190629e-01  
      </Biases>
    </DenseLayer>
  </Weights>
</MethodSetup>
